0.499728 0.489476 0.488206
0.98845 0.994247 0.99927
1.4811 1.48384 1.50789
1.99059 1.98636 2.11206
2.48366 2.49501 2.73275
2.98416 2.98281 3.15548
3.47972 3.47274 3.38013
3.97147 3.9738 3.62568
4.46624 4.47313 3.7896
4.98067 4.97437 3.99261
4.49274 4.53268 4.33114
4.99669 5.03072 4.48897
5.50188 5.54892 4.57726
6.01392 6.05266 4.60113
6.51392 6.55117 4.78618
7.01075 7.0499 4.96145
7.5113 7.53777 5.04868
8.01579 8.04182 4.92696
8.51019 8.54738 4.87381
9.00612 9.06027 5.0562
6.42786 6.37839 5.13361
6.92214 6.89052 4.89895
7.40858 7.4003 4.9613
7.90934 7.89448 4.9308
8.41012 8.38416 5.03898
8.92665 8.88209 5.15132
9.42615 9.38571 5.1783
9.92488 9.87698 5.12502
10.4227 10.3605 5.08296
10.9172 10.868 5.06502
6.39351 6.45653 5.17193
6.9152 6.95711 5.0002
7.41105 7.46939 5.11449
7.9149 7.97729 5.04451
8.42253 8.47274 5.07126
8.92286 8.96896 5.01686
9.42078 9.46544 4.96475
9.92019 9.95942 4.97651
10.4144 10.4529 5.03826
10.9119 10.9344 4.94499
6.28339 6.25748 4.96267
6.76246 6.77065 5.01086
7.27253 7.2723 4.92906
7.7873 7.77295 4.80702
8.28893 8.2719 4.82856
8.7816 8.77175 4.83381
9.27477 9.29563 4.83206
9.77131 9.80506 4.82282
10.2606 10.2989 5.03539
10.7613 10.7923 5.14539
6.07824 6.11366 5.12446
6.58734 6.61683 5.07703
7.07659 7.10039 5.08109
7.57879 7.58686 4.99866
8.09526 8.09636 4.99532
8.58508 8.59577 4.83235
9.07968 9.10674 4.83629
9.58901 9.61912 4.90276
10.1027 10.1165 4.85136
10.5867 10.617 4.84796
6.38043 6.42526 4.91919
6.87999 6.92482 4.91986
7.35811 7.41542 5.12583
7.87503 7.91362 5.26695
8.37983 8.41305 5.12049
8.91072 8.91032 5.14323
9.42112 9.41582 5.0343
9.91244 9.90699 5.02501
10.4144 10.4169 5.10585
10.9221 10.9105 4.96894
6.28712 6.20926 4.89281
6.79321 6.7163 4.77802
7.30642 7.21273 4.77388
7.79173 7.69905 4.90426
8.28492 8.18951 4.88838
8.78471 8.69015 4.88105
9.27337 9.18045 4.88953
9.77805 9.68343 5.01438
10.3015 10.1953 5.05509
10.8066 10.7043 4.95191
6.31169 6.20744 4.97022
6.81876 6.69605 4.92543
7.31746 7.20655 4.95834
7.81235 7.6971 5.03799
8.30531 8.18308 5.03371
8.81243 8.68516 5.1465
9.30557 9.19296 5.09641
9.80018 9.68889 5.09964
10.304 10.172 4.95869
10.8118 10.6638 4.86141
6.12061 6.26805 4.825
6.62193 6.78358 4.91152
7.13085 7.28982 4.95527
7.63508 7.79774 4.85255
8.13873 8.30733 4.91491
8.65247 8.80358 4.92984
9.15814 9.3023 4.84967
9.65588 9.81927 4.92329
10.159 10.3141 5.00311
10.6595 10.841 4.8453
6.36721 6.15753 4.90847
6.88441 6.66787 4.78094
7.38367 7.14911 4.87043
7.88856 7.65383 4.94205
8.38629 8.14986 5.14846
8.88065 8.65009 5.10046
9.37428 9.14409 4.91451
9.8735 9.63126 4.90346
10.3815 10.1369 4.77295
10.8798 10.6411 4.98274
6.2614 6.43648 4.88746
6.77067 6.94238 4.99448
7.26252 7.45042 4.96123
7.76823 7.9409 5.18312
8.25844 8.44602 5.0094
8.75294 8.93282 5.16642
9.24432 9.42048 5.082
9.75445 9.91128 5.17252
10.2537 10.408 5.04192
10.7317 10.9185 5.11838
6.22352 6.22948 5.06303
6.72713 6.7187 4.95491
7.23418 7.22044 4.974
7.74417 7.72692 4.89359
8.26888 8.20916 4.79014
8.78012 8.72113 4.83239
9.28507 9.23625 4.82087
9.79431 9.74606 4.79411
10.3096 10.2249 4.85757
10.8059 10.7156 4.90367
6.29051 6.21812 5.12677
6.79519 6.72939 5.07945
7.28929 7.2339 5.1292
7.78355 7.7489 5.05039
8.27702 8.2613 5.07953
8.78872 8.76375 5.0773
9.29152 9.2612 5.08766
9.80419 9.75343 5.07491
10.3102 10.2583 5.01627
10.8148 10.7609 5.04093
6.23435 6.25046 5.02526
6.73176 6.75764 4.91255
7.22505 7.26592 4.83088
7.70616 7.77331 4.82735
8.19235 8.27531 4.89655
8.685 8.76405 4.87011
9.17965 9.25798 4.9393
9.67599 9.74862 5.03046
10.1721 10.2481 5.16665
10.6801 10.7236 5.0892
6.3328 6.37342 5.08618
6.83379 6.87018 5.076
7.32675 7.35601 4.94119
7.82431 7.86727 5.06117
8.32617 8.36776 5.09394
8.83402 8.8792 5.12318
9.32291 9.38959 4.95267
9.81466 9.9098 5.07451
10.3081 10.4281 5.0414
10.818 10.9292 4.93961
6.2273 6.15329 4.89655
6.71673 6.64845 4.87762
7.20749 7.14294 4.65426
7.69419 7.65289 4.667
8.19469 8.14579 4.83843
8.69722 8.65408 4.96958
9.18808 9.16781 5.02131
9.69412 9.65798 5.03634
10.1882 10.153 5.03029
10.6754 10.6505 5.00727
6.22917 6.25959 4.92983
6.73591 6.77072 4.74385
7.23749 7.25929 4.85786
7.75623 7.77885 4.89319
8.25285 8.28434 4.95429
8.75642 8.77836 4.89599
9.25885 9.27021 5.09039
9.7619 9.77823 5.00027
10.2443 10.2713 5.02216
10.7535 10.7497 4.94826
6.24779 6.18245 4.87546
6.75488 6.68153 4.87515
7.26038 7.20232 4.87552
7.74495 7.69249 4.92635
8.25176 8.19061 5.05828
8.75626 8.70342 4.96151
9.23934 9.19465 5.06414
9.7396 9.69194 4.94184
10.2419 10.183 5.03505
10.7468 10.6722 4.95381
6.31882 6.30247 4.91828
6.81392 6.78952 4.96441
7.32479 7.27491 4.84574
7.82214 7.76504 4.88398
8.32268 8.26595 4.81905
8.82902 8.78244 4.92623
9.33585 9.27612 4.86976
9.84263 9.78344 4.86648
10.3383 10.2735 4.98389
10.8372 10.7584 4.92259
6.222 6.14299 5.08779
6.71783 6.65592 5.12513
7.21908 7.15481 5.20847
7.71154 7.65849 5.07349
8.2122 8.1541 4.90507
8.71574 8.6426 4.98153
9.21747 9.14198 4.89898
9.70786 9.64217 4.76876
10.2104 10.1398 4.85812
10.7102 10.6381 5.01784
6.22964 6.26189 4.92263
6.73871 6.73979 4.93303
7.23284 7.22621 5.07424
7.71135 7.73413 5.08038
8.21709 8.2143 5.14623
8.71846 8.7286 5.08574
9.19581 9.22688 5.05786
9.70409 9.69872 5.02598
10.2103 10.2089 5.12107
10.7021 10.709 5.12035
6.22506 6.29752 5.04785
6.7268 6.78712 5.05828
7.23547 7.30179 5.11349
7.73894 7.79573 4.78874
8.25224 8.28312 4.6115
8.74408 8.79646 4.68025
9.24024 9.27726 4.78671
9.73337 9.7788 4.77558
10.2218 10.2649 4.89454
10.7123 10.7802 4.9363
6.2871 6.13451 5.11021
6.78356 6.63037 5.11243
7.28438 7.14136 4.92737
7.79741 7.65238 5.00974
8.31142 8.15426 4.99435
8.81205 8.6461 4.93119
9.29653 9.14037 4.98782
9.78083 9.65617 4.9067
10.2804 10.169 5.00724
10.7802 10.6592 4.86104
6.15612 6.27506 4.88967
6.64596 6.7765 4.83773
7.15212 7.29083 4.85063
7.65452 7.78218 4.83565
8.15003 8.29952 4.97873
8.65632 8.80592 5.14427
9.14962 9.30873 5.18064
9.64672 9.81334 5.08021
10.1634 10.3199 5.02298
10.669 10.8013 5.1124
6.1424 6.50391 5.22843
6.62483 7.00046 5.06321
7.14532 7.49534 4.98853
7.64477 7.98324 4.91615
8.12693 8.47662 4.91793
8.63504 8.96169 5.01989
9.13048 9.45247 4.99937
9.6389 9.94067 4.93065
10.1565 10.4487 4.8498
10.6485 10.9572 4.84307
6.45784 5.9588 4.89356
6.96603 6.46432 4.99563
7.46374 6.96409 4.92132
7.97401 7.46448 4.81856
8.48219 7.96887 4.80187
8.99023 8.46832 5.03942
9.49529 8.96767 5.17275
9.9945 9.47625 5.1618
10.5085 9.99922 5.09114
11.0179 10.497 4.9816
6.30721 6.30742 4.90758
6.81808 6.78852 4.87052
7.31668 7.29034 4.89302
7.81206 7.79478 4.86889
8.32225 8.30353 4.87621
8.82249 8.79148 4.83597
9.32074 9.28075 4.81185
9.82384 9.7805 4.87848
10.3067 10.2627 5.05493
10.8052 10.772 5.10222
6.25221 6.27185 5.25246
6.77768 6.76085 5.15128
7.2996 7.25395 5.09803
7.79394 7.75604 4.99165
8.29699 8.26066 4.87443
8.8018 8.75995 4.89961
9.29563 9.27002 4.892
9.78342 9.76305 4.85816
10.2992 10.258 4.84838
10.7973 10.7464 4.83016
6.21432 6.22659 4.84549
6.7057 6.7226 4.90896
7.19895 7.22425 5.04552
7.688 7.74411 4.858
8.19015 8.23084 4.83158
8.69455 8.72402 4.79528
9.19618 9.22758 4.81502
9.70564 9.73417 4.93786
10.2165 10.2333 4.97501
10.709 10.7311 4.97759
6.3206 6.3043 5.00136
6.82282 6.7941 5.16322
7.31841 7.30735 5.22687
7.82638 7.8102 5.21529
8.32431 8.31711 5.11534
8.83722 8.80306 5.01909
9.34249 9.31122 4.84189
9.84591 9.81207 4.83193
10.3483 10.309 5.04387
10.8575 10.8202 4.96479
6.28014 6.22147 5.01733
6.76338 6.72482 5.02387
7.2626 7.22739 5.06278
7.76685 7.73286 5.10746
8.27541 8.22717 5.05234
8.79223 8.73336 5.12111
9.29677 9.21878 5.07407
9.80936 9.71866 4.96277
10.2957 10.2215 4.89308
10.788 10.7246 4.7399
6.30147 6.21281 4.83464
6.81059 6.71959 4.95181
7.32353 7.21046 5.04265
7.82641 7.70292 4.98717
8.33134 8.19956 5.025
8.8214 8.69419 5.03819
9.33145 9.1997 5.08625
9.83039 9.69816 5.02176
10.3282 10.1982 4.8849
10.8357 10.7005 4.7107
6.11133 6.3574 4.68746
6.61383 6.85576 4.92957
7.10055 7.34805 4.8451
7.09749 7.33455 4.43738
7.1037 7.32919 3.88903
7.10499 7.31678 3.42848
7.10347 7.32861 2.86546
7.1187 7.33906 2.46388
7.11223 7.34672 2.16919
7.11219 7.33978 1.8105
2.50492 2.47461 1.46152
2.5052 2.46785 1.09076
2.48018 2.46189 0.794364
2.47359 2.46136 0.406272
2.45586 2.46327 0.184427
2.45951 2.46032 0.132639
2.45917 2.45274 0.0926739
2.45746 2.43609 0.00836139
2.44716 2.43445 0.0104723
2.45247 2.42767 -0.0216724
-0.0873852 -0.289251 0.03439
-0.0741769 -0.286655 0.0368457
-0.0777274 -0.283054 -0.130492
-0.0676884 -0.275254 -0.18093
-0.0490382 -0.271381 -0.0865921
-0.0453945 -0.271628 -0.0378269
-0.040647 -0.258067 -0.0474869
-0.0341801 -0.269531 -0.085716
-0.0394471 -0.276921 -0.0293934
-0.0544766 -0.266913 -0.140571
-0.307217 -0.226534 -0.207184
-0.307032 -0.237075 -0.149896
-0.318639 -0.231911 -0.0382371
-0.293699 -0.225397 -0.00129326
-0.303989 -0.231636 0.0601879
-0.314534 -0.211122 0.0675756
-0.310452 -0.208888 0.0315078
-0.328319 -0.209025 0.0469144
-0.334839 -0.193921 0.00209679
-0.344049 -0.178635 -0.0668893
-0.0646234 -0.0873335 -0.0386895
-0.0730712 -0.0806184 -0.0683522
-0.0821977 -0.0633817 -0.0358292
-0.0817193 -0.0593448 -0.180361
-0.0680434 -0.0477013 -0.0995216
-0.0616152 -0.0423955 -0.102282
-0.0622534 -0.0441964 -0.200448
-0.0586616 -0.064263 -0.054083
-0.070746 -0.0647143 -0.0493753
-0.0690016 -0.0533126 0.0105658
0.0963422 0.140863 0.10119
0.0908603 0.154258 0.118372
0.101351 0.157441 0.251267
0.0856279 0.164497 0.0184002
0.107403 0.165374 0.0811879
0.122452 0.156037 0.0169854
0.135104 0.166449 0.0264883
0.130112 0.155736 0.0018501
0.129495 0.18945 -0.0489153
0.122918 0.208524 -0.00387316
-0.100566 0.0720975 0.0753328
-0.0852018 0.0669795 0.0554913
-0.092009 0.0510091 0.148273
-0.095477 0.0406043 0.0942575
-0.0929402 0.036759 0.0888863
-0.0869785 0.0476178 0.0805488
-0.0954619 0.0358072 -0.0926165
-0.095412 0.0338201 -0.0211501
-0.0863257 0.0439662 0.0705679
-0.0982487 0.0370436 0.067915
0.0995984 -0.0504817 -0.0730481
0.0864526 -0.0482139 -0.262017
0.0990649 -0.04875 -0.354149
0.103398 -0.065233 -0.382583
0.112434 -0.0563341 -0.281205
0.128192 -0.0611152 -0.0946413
0.124184 -0.0514407 -0.136448
0.131305 -0.0488153 -0.0386361
0.130913 -0.0471467 0.0369284
0.125361 -0.0536015 0.0209432
0.0497753 -0.0532192 0.0975457
0.0368773 -0.0403232 0.0680647
0.0499122 -0.0257115 0.0465343
0.049567 -0.0265009 0.0955902
0.0422518 -0.0261749 0.0507502
0.0338601 -0.0142239 0.0607552
0.0332776 -0.0134477 0.0866101
0.0264748 -0.00504596 0.0461139
0.037055 0.00471241 0.109795
0.0342414 0.00380839 0.0678579
-0.0965584 0.157446 0.051465
-0.103038 0.141928 -0.0374443
-0.078166 0.157414 -0.0149102
-0.0907888 0.156903 0.181504
-0.10574 0.136566 0.0947672
-0.12265 0.136233 -0.0128627
-0.117193 0.135375 -0.0189111
-0.135561 0.144529 0.0401002
-0.127556 0.139696 0.0504377
-0.132721 0.127302 -0.0325323
-0.0243537 -0.026052 0.0046289
-0.00335537 -0.030584 0.118681
0.00682216 -0.0246657 0.0338202
0.0085806 -0.0314005 0.298447
0.00632531 -0.019694 0.404499
-0.00399614 -0.0250218 0.26229
0.000442465 -0.0270442 0.0454718
-0.00371354 -0.0422318 -0.017695
-0.0063241 -0.0680597 -0.0700398
0.00790028 -0.0697277 -0.0953509
-0.0173385 -0.118652 -0.19799
-0.020107 -0.12919 -0.155974
-0.0182431 -0.130896 -0.113735
-0.0214255 -0.135581 -0.172183
-0.0249604 -0.1384 -0.294053
-0.0219014 -0.149711 -0.185045
-0.0269163 -0.14813 -0.104426
-0.0302788 -0.14519 -0.0402932
-0.0422553 -0.147778 0.0428629
-0.0342041 -0.152129 0.0308533
0.118092 0.026215 0.241764
0.131333 0.0324944 0.00748962
0.12857 0.0426654 0.035635
0.1324 0.0466229 0.0541176
0.142348 0.0293629 0.163095
0.151443 0.0438998 0.162087
0.147039 0.0291018 -0.0526647
0.155342 0.0282986 0.0580043
0.140228 0.0288264 0.121616
0.121342 0.0136709 -0.00014367
-0.15829 -0.0132648 -0.112156
-0.165297 -0.0169378 -0.268732
-0.176544 -0.00186963 -0.106955
-0.181318 -0.000842056 0.0231796
-0.184024 0.011473 0.197541
-0.182309 -0.00086219 0.101901
-0.19908 0.00278387 0.0145569
-0.216487 -0.00959484 0.0538961
-0.221855 -0.0145944 0.0141902
-0.227267 -0.0095629 0.117415
-0.0215943 -0.0714392 0.0165075
-0.0173379 -0.0705729 0.0279716
-0.016955 -0.0605701 0.0112797
-0.0140321 -0.0468718 -0.137748
-0.0102028 -0.0469851 -0.140723
-0.0107547 -0.0436153 -0.289258
-0.0098254 -0.0521247 -0.111098
-0.021728 -0.0523196 -0.0876844
-0.00109394 -0.0516467 -0.178922
0.00492962 -0.0499658 -0.202105
-0.00697343 0.0439835 -0.15273
0.00370614 0.0563972 -0.116332
0.000235982 0.075794 -0.192096
-0.000336563 0.0657555 -0.0918179
-0.00189067 0.0601094 -0.10883
0.00433081 0.0605623 0.00397484
0.00215827 0.0514005 0.0662985
-0.000282698 0.047851 0.0729398
-0.00852662 0.0510915 0.0728692
0.000227154 0.0453813 -0.014139
0.0112017 0.0719384 0.192002
0.0187137 0.074146 0.182508
0.0257947 0.0643845 0.175905
0.0417538 0.0557654 0.138466
0.0359887 0.0582844 -0.0277264
0.0530484 0.0522293 -0.157231
0.0514204 0.054157 -0.0516283
0.0483925 0.0373723 0.065788
0.0653303 0.0456402 -0.012779
0.0593988 0.0530119 -0.0133239
0.100241 -0.127523 0.121184
0.117807 -0.12871 0.110383
0.106277 -0.114136 -0.00732949
0.105509 -0.0959759 -0.114649
0.113899 -0.078193 -0.0859932
0.127067 -0.0662821 0.12169
0.12872 -0.0775588 0.0206094
0.123532 -0.0617894 -0.149665
0.105052 -0.0572349 -0.177849
0.105314 -0.0449535 0.00255556
-0.0775497 0.114729 -0.143942
-0.0826103 0.124178 -0.175383
-0.078624 0.131307 -0.0752952
-0.0667872 0.138721 0.0276657
-0.070073 0.12766 0.0939766
-0.0689928 0.113516 0.0346113
-0.0724152 0.120995 0.24279
-0.0882867 0.147289 0.089581
-0.0886189 0.148341 0.0517602
-0.0925692 0.155819 0.0892474
0.0176728 0.0113056 0.0637219
0.0185986 0.0151152 0.143399
0.0221487 0.0255814 0.138406
0.0025021 0.0367885 0.0454605
0.00620261 0.0293351 -0.00186523
0.0100642 0.0329783 -0.130876
0.0150519 0.0524625 -0.131898
0.014286 0.0597941 -0.18291
-0.00399588 0.0426274 -0.0970877
-0.00181219 0.0435322 -0.0590719
-0.0235399 0.0675442 -0.0441141
0.00452649 0.0519072 -0.00903441
0.0224395 0.0482723 -0.0501851
0.0144891 0.0589916 -0.00565142
0.0099565 0.0609504 -0.00714576
0.0194268 0.0593495 0.052316
0.0171454 0.0574754 0.118297
0.0300157 0.0411378 0.0713585
0.0462513 0.0338361 0.0244177
0.0308118 0.0347654 -0.0878772
0.0303067 0.0962091 -0.0559947
0.0228448 0.098794 0.0575109
0.0329386 0.0971821 0.0845686
0.0207704 0.107171 0.179676
0.0213777 0.116701 0.166578
0.0243672 0.106043 0.125281
0.0223294 0.12306 -0.135106
0.0345832 0.126993 -0.0188621
0.0233764 0.115131 -0.00922542
0.0335664 0.120352 -0.0505466
0.0886377 0.0283357 -0.127466
0.0796513 0.0231818 -0.0657879
0.078454 0.0109581 -0.149486
0.0780186 0.0140488 0.111018
0.0789733 0.0122576 0.06562
0.0796298 0.00727519 -0.0228254
0.0925859 -0.0178028 0.0656651
0.117518 -0.00664473 0.154778
0.116488 -0.00246041 0.0370056
0.13282 0.00189061 -0.0331276
-0.159874 -0.217684 0.0132869
-0.155562 -0.205784 0.0866437
-0.155808 -0.215724 0.065666
-0.145325 -0.232607 0.0397337
-0.15824 -0.227974 -0.0113103
-0.147225 -0.245259 -0.110156
-0.14289 -0.24433 -0.0271624
-0.138802 -0.256683 -0.125517
-0.149306 -0.266548 -0.17117
-0.145435 -0.266816 -0.0747971
0.104826 0.0188401 -0.0768636
0.0991239 0.0214331 -0.13037
0.0943182 0.0324347 0.0487034
0.0849155 0.0236642 0.0622576
0.0808849 0.0266742 0.0272247
0.094793 0.0216512 -0.0548558
0.100994 0.0132915 -0.119747
0.101878 0.00330163 -0.157432
0.105302 -0.00297442 -0.126541
0.110348 -0.00810742 -0.162312
0.155156 0.00318749 -0.0278766
0.151988 0.0121697 0.0757503
0.132699 0.0151876 0.126533
0.135974 0.0147127 0.113788
0.129634 0.0295571 0.210229
0.133705 0.00712992 -0.0153159
0.14342 0.00705349 -0.116618
0.127159 -0.00365349 -0.0648036
0.129722 -0.000455228 0.0724539
0.119973 -0.0144658 0.152281
-0.249457 0.0333044 0.163574
-0.253591 0.0242878 0.239156
-0.249879 0.0181103 0.0184186
-0.24284 0.00956179 -0.032458
-0.233351 0.0114587 -0.0057048
-0.225757 0.0142205 -0.0398386
-0.218708 0.0255768 0.0332341
-0.212391 0.0242714 0.16746
-0.201496 0.0229069 0.036423
-0.200766 0.0143078 0.14334
0.178416 -0.0651381 -0.0374212
0.17684 -0.0630017 0.0170492
0.181085 -0.0571807 0.145534
0.178674 -0.0426367 0.00872727
0.182559 -0.0472216 0.0185166
0.178739 -0.0389002 -0.0534766
0.173343 -0.0386644 -0.140969
0.159343 -0.0203263 -0.189431
0.158256 -0.0134623 -0.0473168
0.178161 -0.0179426 -0.0450666
-0.0379268 0.0470155 -0.00383412
-0.0380597 0.0490923 0.141796
-0.0101096 0.0333977 0.107136
0.00414745 0.0414428 -0.0418927
0.0159731 0.0380983 -0.0257131
0.01795 0.0454094 0.0297858
0.0170944 0.0499686 0.0768768
0.0111726 0.053529 0.0208476
0.00636311 0.0634106 -0.0413185
-0.0112732 0.0400662 0.00425848
0.0213757 0.0326734 -0.0378883
0.030594 0.0353819 -0.0129013
0.0314485 0.0332694 -0.011065
0.0286644 0.0275502 -0.000658419
0.0110616 0.0388789 0.023802
-0.00487912 0.0488228 0.0370389
0.00427082 0.036202 0.0505663
0.00492994 0.0377553 0.039287
0.00381346 0.0228678 0.0705511
0.00963681 0.052287 0.0656571
0.0933659 -0.0254578 0.0784437
0.0920349 -0.0232479 0.105126
0.0943742 -0.0138553 0.0284258
0.0804164 -0.0270967 -0.0419712
0.0595735 -0.0194302 0.0123619
0.0694428 -0.0186268 0.0527689
0.0769215 0.0047526 -0.118647
0.0709794 0.00865635 -0.0320799
0.0649224 0.00402745 -0.0528068
0.0594235 -0.00291126 -0.0443095
-0.0908803 0.0139223 -0.01869
-0.0960862 0.0246854 -0.0889715
-0.104544 0.0118594 -0.104331
-0.116005 0.0158701 -0.082446
-0.103931 0.00448684 -0.118558
-0.0977412 0.00382665 0.162544
-0.0976015 -0.00890066 0.29157
-0.101973 -0.0107006 0.11922
-0.100561 -0.00575317 0.0895333
-0.115951 -0.00124823 0.0786325
-0.217333 -0.00661317 0.0636923
-0.220126 0.00620303 -0.00967681
-0.219167 0.0264395 -0.0985041
-0.238652 0.0199498 -0.106397
-0.241972 0.0163675 -0.0856153
-0.247049 0.0272168 -0.117809
-0.253162 0.00807851 -0.114644
-0.254266 -0.0190187 -0.130179
-0.274582 -0.00912872 -0.122004
-0.288239 -0.00965688 -0.00248272
0.0113964 0.172677 -0.00425418
0.0375024 0.172464 -0.00848647
0.0351499 0.170915 0.013313
0.0361764 0.16699 0.00938308
0.0572673 0.158833 0.0620645
0.069717 0.170801 -0.000606891
0.0739224 0.16497 0.0547665
-0.437589 -0.33126 -0.382407
-0.943724 -0.839475 -0.825196
-1.45895 -1.31814 -1.45221
-1.91995 -2.06319 -1.9779
-2.41368 -2.55656 -2.33551
-2.91056 -3.05131 -2.86974
-3.41523 -3.56074 -3.1632
-3.91495 -4.06792 -3.46974
-4.40327 -4.56826 -3.76904
-4.90179 -5.06926 -4.1814
-5.39785 -5.57113 -4.33557
-5.9043 -6.08154 -4.67666
-6.40135 -6.58873 -4.84342
-5.68471 -5.8064 -4.99063
-6.19155 -6.29418 -5.12753
-6.6944 -6.78219 -5.08461
-7.20676 -7.27965 -5.09944
-7.69267 -7.78544 -5.18123
-8.18659 -8.26514 -5.20849
-8.69791 -8.76262 -5.29844
-9.20809 -9.26939 -5.24845
-9.70533 -9.7685 -5.18931
-10.1992 -10.2693 -5.17128
-6.83238 -6.51947 -5.22395
-7.33082 -7.02433 -5.06841
-7.83747 -7.52067 -5.01135
-8.34042 -8.03196 -5.00111
-8.84409 -8.53385 -5.0396
-9.34605 -9.03474 -4.99947
-9.85235 -9.55242 -5.00912
-10.3413 -10.0333 -4.96684
-10.8505 -10.5238 -4.99537
-11.3427 -11.032 -5.09396
-6.46129 -6.45873 -5.06833
-6.95861 -6.94658 -4.88521
-7.44656 -7.43758 -4.90893
-7.93476 -7.94429 -5.00401
-8.40327 -8.43621 -4.8699
-8.90829 -8.93987 -4.97096
-9.40803 -9.44621 -4.95169
-9.89888 -9.92907 -4.91554
-10.3918 -10.4318 -4.92665
-10.8865 -10.9244 -4.92189
-5.86643 -6.17503 -4.96282
-6.36551 -6.66712 -5.00728
-6.85725 -7.17532 -4.86551
-7.36783 -7.67379 -4.86026
-7.87457 -8.19029 -5.03086
-8.37462 -8.69043 -5.03961
-8.87406 -9.1706 -4.96344
-9.38747 -9.66918 -4.97556
-9.89188 -10.1536 -4.81509
-10.3882 -10.6392 -4.93108
-6.32494 -6.19431 -4.86366
-6.82282 -6.67969 -4.92891
-7.30968 -7.18798 -4.98122
-7.82138 -7.69009 -5.09361
-8.3291 -8.18836 -5.02517
-8.82158 -8.68382 -4.97262
-9.3192 -9.1818 -4.87763
-9.81434 -9.67625 -4.85499
-10.3148 -10.1734 -4.97299
-10.8056 -10.685 -4.90057
-6.24116 -6.17648 -5.09225
-6.74573 -6.67347 -4.95373
-7.23292 -7.18861 -4.95163
-7.73709 -7.67925 -4.89646
-8.25047 -8.16812 -4.94078
-8.76525 -8.65433 -5.03052
-9.25982 -9.15281 -5.01436
-9.76143 -9.64781 -4.79775
-10.2531 -10.148 -4.92841
-10.748 -10.6416 -5.08781
-6.33244 -6.32947 -5.00096
-6.83464 -6.83125 -4.93341
-7.3433 -7.32623 -4.97851
-7.84013 -7.82026 -5.0456
-8.33258 -8.28895 -5.10711
-8.81874 -8.78715 -5.05118
-9.33636 -9.26993 -4.97634
-9.82387 -9.76019 -4.86363
-10.3146 -10.2722 -4.8491
-10.8213 -10.7757 -4.9477
-6.13249 -6.14856 -5.05382
-6.62313 -6.63208 -4.99982
-7.12369 -7.12904 -5.13055
-7.61532 -7.62914 -5.02906
-8.11083 -8.14048 -5.02324
-8.60523 -8.63748 -4.92265
-9.1116 -9.14516 -4.91713
-9.60643 -9.66293 -5.04546
-10.1098 -10.1684 -4.90037
-10.6199 -10.6641 -4.98884
-6.24555 -6.19656 -4.99305
-6.74604 -6.7028 -4.89087
-7.24925 -7.21208 -5.06584
-7.75189 -7.70051 -5.00952
-8.25391 -8.1911 -5.06716
-8.75599 -8.70284 -5.01361
-9.25512 -9.20111 -4.88067
-9.75603 -9.71127 -4.9708
-10.248 -10.2122 -4.96068
-10.7464 -10.7048 -4.99168
-6.24447 -6.35622 -4.84527
-6.75097 -6.84958 -4.92609
-7.24686 -7.34833 -4.90027
-7.73765 -7.8373 -4.89732
-8.2363 -8.35303 -4.87338
-8.72941 -8.84711 -4.9883
-9.24003 -9.36597 -5.05538
-9.75285 -9.86327 -5.0723
-10.2297 -10.3486 -4.9629
-10.7228 -10.8648 -5.07329
-6.31301 -6.10108 -5.07266
-6.79843 -6.61519 -4.97365
-7.31458 -7.10782 -4.93795
-7.80806 -7.62314 -5.00314
-8.31433 -8.10998 -5.00501
-8.825 -8.6042 -5.06723
-9.31511 -9.12278 -4.96872
-9.82096 -9.62424 -4.85323
-10.3299 -10.1276 -4.94383
-10.8359 -10.6411 -4.98192
-6.32847 -6.49711 -5.09546
-6.81943 -6.99565 -5.13908
-7.32841 -7.50038 -5.06292
-7.8348 -7.99214 -4.94036
-8.33331 -8.50454 -4.9675
-8.84632 -9.00269 -4.94834
-9.34017 -9.49593 -4.98017
-9.83958 -9.99881 -4.91807
-10.3374 -10.4889 -4.90331
-10.8386 -10.99 -4.91392
-6.21317 -6.14817 -4.94312
-6.70738 -6.62153 -4.85752
-7.20541 -7.13081 -4.8609
-7.71633 -7.6355 -4.86045
-8.22169 -8.12832 -4.98469
-8.72123 -8.62724 -5.09372
-9.22102 -9.12641 -5.0183
-9.69915 -9.62997 -5.00966
-10.1977 -10.1235 -4.87799
-10.6945 -10.6104 -4.90709
-6.22953 -6.28458 -4.89228
-6.72658 -6.80611 -4.85804
-7.2278 -7.31663 -4.80645
-7.7403 -7.8272 -4.88728
-8.23836 -8.32455 -4.91379
-8.71638 -8.81026 -4.88345
-9.21658 -9.31294 -4.91214
-9.70999 -9.81335 -4.93585
-10.2023 -10.3137 -4.84712
-10.6795 -10.8309 -4.78482
-6.12082 -6.25435 -4.88289
-6.6175 -6.76522 -5.00711
-7.11577 -7.27659 -4.9224
-7.62357 -7.76734 -5.01248
-8.13944 -8.27553 -4.99955
-8.65078 -8.76986 -4.92928
-9.16328 -9.25615 -5.04836
-9.6645 -9.75526 -5.05915
-10.1755 -10.2676 -5.10348
-10.6844 -10.7514 -5.07756
-6.32436 -6.21857 -5.07373
-6.83175 -6.71374 -5.03926
-7.32621 -7.21047 -4.86087
-7.83335 -7.71998 -4.72223
-8.34181 -8.20389 -4.7825
-8.85109 -8.7075 -4.98534
-9.34597 -9.2182 -5.06793
-9.84773 -9.70601 -4.94054
-10.3415 -10.2253 -5.01415
-10.8192 -10.7194 -5.01021
-6.37262 -6.2632 -5.06443
-6.86753 -6.75073 -4.94255
-7.36365 -7.25206 -4.96344
-7.8509 -7.75768 -5.0152
-8.35174 -8.25033 -4.88686
-8.86646 -8.75563 -4.97247
-9.3522 -9.25882 -4.92313
-9.84326 -9.76889 -5.10833
-10.3323 -10.2543 -4.96115
-10.8176 -10.7431 -5.06784
-6.10954 -6.31195 -5.01803
-6.61108 -6.81094 -4.95839
-7.13362 -7.31119 -5.04477
-7.63428 -7.81958 -4.91157
-8.13649 -8.32387 -5.04773
-8.63973 -8.83293 -5.05773
-9.1445 -9.33231 -4.92425
-9.63115 -9.83795 -4.86405
-10.1485 -10.326 -4.83351
-10.6361 -10.824 -4.88111
-6.1959 -6.22144 -4.63839
-6.70584 -6.71408 -4.80963
-7.19241 -7.20938 -4.82347
-7.6756 -7.70524 -4.8349
-8.17336 -8.22538 -4.91372
-8.66579 -8.73267 -4.92515
-9.1684 -9.23825 -5.12653
-9.66426 -9.71346 -5.14264
-10.1819 -10.2171 -5.01654
-10.6906 -10.7133 -4.89465
-6.37843 -6.14969 -4.90614
-6.87915 -6.67176 -5.05863
-7.36972 -7.17009 -5.11865
-7.87262 -7.66309 -5.15042
-8.36125 -8.15769 -5.02177
-8.87182 -8.65022 -5.02512
-9.36928 -9.16477 -4.96717
-9.85917 -9.67545 -4.8234
-10.3639 -10.183 -4.87268
-10.8579 -10.6789 -4.85056
-6.25292 -6.40404 -4.83569
-6.74941 -6.89233 -4.81459
-7.26361 -7.38532 -4.77445
-7.76524 -7.89487 -4.92242
-8.28475 -8.39844 -4.8715
-8.78774 -8.89526 -4.95604
-9.27622 -9.38437 -5.11593
-9.76262 -9.89983 -5.11437
-10.2641 -10.3998 -5.01757
-10.7724 -10.888 -4.99365
-6.14753 -6.19328 -5.11428
-6.66209 -6.68125 -5.00778
-7.17427 -7.19204 -4.76137
-7.6846 -7.70012 -4.70813
-8.19381 -8.17959 -4.89117
-8.69554 -8.68139 -4.95569
-9.19228 -9.19292 -5.05127
-9.683 -9.70154 -5.06917
-10.1829 -10.2034 -5.03834
-10.6709 -10.6847 -5.0866
-6.20052 -6.21754 -4.92433
-6.68785 -6.73864 -4.96653
-7.17581 -7.24926 -4.96627
-7.67032 -7.74447 -4.92391
-8.15516 -8.23993 -4.88206
-8.6709 -8.72179 -4.90435
-9.16963 -9.22895 -4.92759
-9.65585 -9.73593 -5.02802
-10.1502 -10.2408 -5.03444
-10.6484 -10.7423 -4.92578
-6.26826 -6.33459 -5.00943
-6.76408 -6.82832 -5.04532
-7.25978 -7.34099 -4.90556
-7.75648 -7.84443 -4.80794
-8.23636 -8.36436 -4.8548
-8.73626 -8.86015 -4.83104
-9.23359 -9.37487 -4.84389
-9.73666 -9.86125 -4.78271
-10.2241 -10.3687 -4.89503
-10.7299 -10.8533 -4.74314
-6.16209 -6.31991 -4.92545
-6.65772 -6.80752 -4.97186
-7.17152 -7.31499 -4.83621
-7.66476 -7.81236 -4.92897
-8.14858 -8.33405 -5.0378
-8.64349 -8.81589 -4.99675
-9.14462 -9.31311 -5.10506
-9.64582 -9.81156 -4.98942
-10.164 -10.3192 -4.83745
-10.6659 -10.8122 -4.85664
-6.39544 -6.09772 -4.98278
-6.91405 -6.60742 -5.06774
-7.40643 -7.10186 -4.93783
-7.90578 -7.6073 -4.92038
-8.39733 -8.10393 -4.86589
-8.91502 -8.59702 -4.91188
-9.3985 -9.11757 -4.84172
-9.91251 -9.61166 -4.7686
-10.4275 -10.1207 -4.90627
-10.9158 -10.6259 -5.14591
-6.18558 -6.3889 -5.14173
-6.68538 -6.8852 -5.09087
-7.18367 -7.39486 -5.00382
-7.68888 -7.89352 -4.92848
-8.20653 -8.38558 -4.89764
-8.71092 -8.88526 -4.85361
-9.20196 -9.39191 -4.95887
-9.69977 -9.8792 -4.85214
-10.2127 -10.395 -4.91369
-10.7159 -10.8845 -5.03402
-6.25188 -6.25229 -5.06549
-6.74579 -6.75205 -4.92573
-7.23512 -7.26346 -4.86678
-7.73064 -7.76801 -4.88321
-8.22681 -8.26498 -4.92872
-8.71531 -8.77113 -4.94861
-9.2117 -9.25487 -5.10901
-9.70616 -9.7579 -5.11347
-10.2091 -10.2481 -4.96852
-10.7041 -10.7604 -4.99463
-6.22558 -6.20991 -5.01353
-6.73485 -6.68498 -5.10264
-7.22487 -7.19282 -5.07805
-7.72918 -7.69914 -5.12414
-8.22509 -8.20068 -4.94471
-8.71071 -8.71697 -4.92872
-9.21314 -9.22923 -4.83833
-9.70847 -9.71966 -4.7822
-10.2215 -10.2182 -4.79423
-10.7301 -10.7259 -4.75889
-6.21275 -6.28572 -4.67251
-6.70947 -6.77879 -4.86512
-7.21714 -7.28149 -4.91217
-7.72426 -7.7649 -5.03937
-8.23665 -8.25429 -5.09535
-8.73529 -8.7538 -5.00559
-9.24681 -9.237 -5.05229
-9.75483 -9.74427 -5.03947
-10.2572 -10.2351 -4.93461
-10.7515 -10.7266 -4.90558
-6.51104 -6.14242 -4.95961
-6.9939 -6.64155 -4.95346
-7.48828 -7.14097 -4.96358
-7.97463 -7.65486 -4.93846
-8.47296 -8.15834 -4.90787
-8.97481 -8.66153 -4.86082
-9.47293 -9.16858 -4.89635
-9.9899 -9.67422 -5.01283
-10.4703 -10.1648 -5.01529
-10.9633 -10.6734 -5.15525
-6.15366 -6.24139 -5.05709
-6.65344 -6.7488 -4.99924
-7.16079 -7.26997 -4.85701
-7.66174 -7.7658 -5.02867
-8.1749 -8.25817 -5.00296
-8.66494 -8.76152 -4.98193
-9.16158 -9.27153 -5.06105
-9.64086 -9.76486 -5.09406
-10.1408 -10.2705 -5.19094
-10.6558 -10.7746 -5.12557
