-0.000403348 0.0015586 0.000826842
-0.000403348 0.0015586 0.000826842
-0.000403348 0.0015586 0.000826842
-0.000403348 0.0015586 0.000826842
-0.000403348 0.0015586 0.000826842
-0.000403348 0.0015586 0.000826842
-0.000403348 0.0015586 0.0130031
-0.000403348 0.0015586 0.0130031
-0.000403348 0.0015586 0.0130031
-0.000403348 0.0015586 0.0130031
-0.000403348 0.0015586 0.0130031
-0.000403348 0.0015586 0.0130031
-0.000403348 0.0015586 0.0140412
-0.000403348 0.0015586 0.0140412
-0.000403348 0.0015586 0.0140412
-0.000403348 0.0015586 0.0140412
-0.000403348 0.0015586 0.0140412
-0.000403348 0.0015586 0.0140412
-0.000403348 0.0015586 -0.0305886
-0.000403348 0.0015586 -0.0305886
-0.000403348 0.0015586 -0.0305886
-0.000403348 0.0015586 -0.0305886
-0.000403348 0.0015586 -0.0305886
-0.000403348 0.0015586 -0.0305886
-0.000403348 0.0015586 -0.0432923
-0.000403348 0.0015586 -0.0432923
-0.000403348 0.0015586 -0.0432923
-0.000403348 0.0015586 -0.0432923
-0.000403348 0.0015586 -0.0432923
-0.000403348 0.0015586 -0.0432923
-0.000403348 0.0015586 -0.0216269
-0.000403348 0.0015586 -0.0216269
-0.000403348 0.0015586 -0.0216269
-0.000403348 0.0015586 -0.0216269
-0.000403348 0.0015586 -0.0216269
-0.0100887 0.000568383 -0.0216269
-0.0100887 0.000568383 -0.0216318
-0.0100887 0.000568383 -0.0216318
-0.0100887 0.000568383 -0.0216318
-0.0100887 0.000568383 -0.0216318
-0.0100887 0.000568383 -0.0216318
-0.0100887 0.000568383 -0.0216318
-0.0100887 0.000568383 -0.023394
-0.0100887 0.000568383 -0.023394
-0.0100887 0.000568383 -0.023394
-0.0100887 0.000568383 -0.023394
-0.0100887 0.000568383 -0.023394
-0.0100887 0.000568383 -0.023394
-0.0100887 0.000568383 -0.0345465
-0.0100887 0.000568383 -0.0345465
-0.0100887 0.000568383 -0.0345465
-0.0100887 0.000568383 -0.0345465
-0.0100887 0.000568383 -0.0345465
-0.0100887 0.000568383 -0.0345465
-0.0100887 0.000568383 -0.0266193
-0.0100887 0.000568383 -0.0266193
-0.0100887 0.000568383 -0.0266193
-0.0100887 0.000568383 -0.0266193
-0.0100887 0.000568383 -0.0266193
-0.0100887 0.000568383 -0.0266193
-0.0100887 0.000568383 -0.0402648
-0.0100887 0.000568383 -0.0402648
-0.0100887 0.000568383 -0.0402648
-0.0100887 0.000568383 -0.0402648
-0.0100887 0.000568383 -0.0402648
-0.0100887 0.000568383 -0.0402648
-0.0100887 0.000568383 -0.0379292
-0.0100887 0.000568383 -0.0379292
-0.0100887 0.000568383 -0.0379292
-0.0100887 0.000568383 -0.0379292
0.0516373 -0.0469728 -0.0379292
0.0516373 -0.0469728 -0.0379292
0.0516373 -0.0469728 -0.0364244
0.0516373 -0.0469728 -0.0364244
0.0516373 -0.0469728 -0.0364244
0.0516373 -0.0469728 -0.0364244
0.0516373 -0.0469728 -0.0364244
0.0516373 -0.0469728 -0.0364244
0.0516373 -0.0469728 -0.0369781
0.0516373 -0.0469728 -0.0369781
0.0516373 -0.0469728 -0.0369781
0.0516373 -0.0469728 -0.0369781
0.0516373 -0.0469728 -0.0369781
0.0516373 -0.0469728 -0.0369781
0.0516373 -0.0469728 -0.0376019
0.0516373 -0.0469728 -0.0376019
0.0516373 -0.0469728 -0.0376019
0.0516373 -0.0469728 -0.0376019
0.0516373 -0.0469728 -0.0376019
0.0516373 -0.0469728 -0.0376019
0.0516373 -0.0469728 -0.0373451
0.0516373 -0.0469728 -0.0373451
0.0516373 -0.0469728 -0.0373451
0.0516373 -0.0469728 -0.0373451
0.0516373 -0.0469728 -0.0373451
0.0516373 -0.0469728 -0.0373451
0.0516373 -0.0469728 -0.0360211
0.0516373 -0.0469728 -0.0360211
0.0516373 -0.0469728 -0.0360211
0.0516373 -0.0469728 -0.0360211
0.0516373 -0.0469728 -0.0360211
0.0516373 -0.0469728 -0.0360211
0.0516373 -0.0469728 -0.0358578
0.0516373 -0.0469728 -0.0358578
0.0516373 -0.0469728 -0.0358578
0.0719741 -0.0384699 -0.0358578
0.0719741 -0.0384699 -0.0358578
0.0719741 -0.0384699 -0.0358578
0.0719741 -0.0384699 -0.0355735
0.0719741 -0.0384699 -0.0355735
0.0719741 -0.0384699 -0.0355735
0.0719741 -0.0384699 -0.0355735
0.0719741 -0.0384699 -0.0355735
0.0719741 -0.0384699 -0.0355735
0.0719741 -0.0384699 -0.0352966
0.0719741 -0.0384699 -0.0352966
0.0719741 -0.0384699 -0.0352966
0.0719741 -0.0384699 -0.0352966
0.0719741 -0.0384699 -0.0352966
0.0719741 -0.0384699 -0.0352966
0.0719741 -0.0384699 -0.0353001
0.0719741 -0.0384699 -0.0353001
0.0719741 -0.0384699 -0.0353001
0.0719741 -0.0384699 -0.0353001
0.0719741 -0.0384699 -0.0353001
0.0719741 -0.0384699 -0.0353001
0.0719741 -0.0384699 -0.0353657
0.0719741 -0.0384699 -0.0353657
0.0719741 -0.0384699 -0.0353657
0.0719741 -0.0384699 -0.0353657
0.0719741 -0.0384699 -0.0353657
0.0719741 -0.0384699 -0.0353657
0.0719741 -0.0384699 -0.0354299
0.0719741 -0.0384699 -0.0354299
0.0719741 -0.0384699 -0.0354299
0.0719741 -0.0384699 -0.0354299
0.0719741 -0.0384699 -0.0354299
0.0719741 -0.0384699 -0.0354299
0.0719741 -0.0384699 -0.0354351
0.0719741 -0.0384699 -0.0354351
0.0718978 -0.0390211 -0.0354351
0.0718978 -0.0390211 -0.0354351
0.0718978 -0.0390211 -0.0354351
0.0718978 -0.0390211 -0.0354351
0.0718978 -0.0390211 -0.0354356
0.0718978 -0.0390211 -0.0354356
0.0718978 -0.0390211 -0.0354356
0.0718978 -0.0390211 -0.0354356
0.0718978 -0.0390211 -0.0354356
0.0718978 -0.0390211 -0.0354356
0.0718978 -0.0390211 -0.0354778
0.0718978 -0.0390211 -0.0354778
0.0718978 -0.0390211 -0.0354778
0.0718978 -0.0390211 -0.0354778
0.0718978 -0.0390211 -0.0354778
0.0718978 -0.0390211 -0.0354778
0.0718978 -0.0390211 -0.0355406
0.0718978 -0.0390211 -0.0355406
0.0718978 -0.0390211 -0.0355406
0.0718978 -0.0390211 -0.0355406
0.0718978 -0.0390211 -0.0355406
0.0718978 -0.0390211 -0.0355406
0.0718978 -0.0390211 -0.0355082
0.0718978 -0.0390211 -0.0355082
0.0718978 -0.0390211 -0.0355082
0.0718978 -0.0390211 -0.0355082
0.0718978 -0.0390211 -0.0355082
0.0718978 -0.0390211 -0.0355082
0.0718978 -0.0390211 -0.0355744
0.0718978 -0.0390211 -0.0355744
0.0718978 -0.0390211 -0.0355744
0.0718978 -0.0390211 -0.0355744
0.0718978 -0.0390211 -0.0355744
0.0718978 -0.0390211 -0.0355744
0.0718978 -0.0390211 -0.0356063
0.0710427 -0.0387264 -0.0356063
0.0710427 -0.0387264 -0.0356063
0.0710427 -0.0387264 -0.0356063
0.0710427 -0.0387264 -0.0356063
0.0710427 -0.0387264 -0.0356063
0.0710427 -0.0387264 -0.0356119
0.0710427 -0.0387264 -0.0356119
0.0710427 -0.0387264 -0.0356119
0.0710427 -0.0387264 -0.0356119
0.0710427 -0.0387264 -0.0356119
0.0710427 -0.0387264 -0.0356119
0.0710427 -0.0387264 -0.0356148
0.0710427 -0.0387264 -0.0356148
0.0710427 -0.0387264 -0.0356148
0.0710427 -0.0387264 -0.0356148
0.0710427 -0.0387264 -0.0356148
0.0710427 -0.0387264 -0.0356148
0.0710427 -0.0387264 -0.0356135
0.0710427 -0.0387264 -0.0356135
0.0710427 -0.0387264 -0.0356135
0.0710427 -0.0387264 -0.0356135
0.0710427 -0.0387264 -0.0356135
0.0710427 -0.0387264 -0.0356135
0.0710427 -0.0387264 -0.0356042
0.0710427 -0.0387264 -0.0356042
0.0710427 -0.0387264 -0.0356042
0.0710427 -0.0387264 -0.0356042
0.0710427 -0.0387264 -0.0356042
0.0710427 -0.0387264 -0.0356042
0.0710427 -0.0387264 -0.0355974
0.0710427 -0.0387264 -0.0355974
0.0710427 -0.0387264 -0.0355974
0.0710427 -0.0387264 -0.0355974
0.0710427 -0.0387264 -0.0355974
0.0710427 -0.0387264 -0.0355974
0.0708999 -0.0390512 -0.0355958
0.0708999 -0.0390512 -0.0355958
0.0708999 -0.0390512 -0.0355958
0.0708999 -0.0390512 -0.0355958
0.0708999 -0.0390512 -0.0355958
0.0708999 -0.0390512 -0.0355958
0.0708999 -0.0390512 -0.035596
0.0708999 -0.0390512 -0.035596
0.0708999 -0.0390512 -0.035596
0.0708999 -0.0390512 -0.035596
0.0708999 -0.0390512 -0.035596
0.0708999 -0.0390512 -0.035596
0.0708999 -0.0390512 -0.0355976
0.0708999 -0.0390512 -0.0355976
0.0708999 -0.0390512 -0.0355976
0.0708999 -0.0390512 -0.0355976
0.0708999 -0.0390512 -0.0355976
0.0708999 -0.0390512 -0.0355976
0.0708999 -0.0390512 -0.0355974
0.0708999 -0.0390512 -0.0355974
0.0708999 -0.0390512 -0.0355974
0.0708999 -0.0390512 -0.0355974
0.0708999 -0.0390512 -0.0355974
0.0708999 -0.0390512 -0.0355974
0.0708999 -0.0390512 -0.0355974
0.0708999 -0.0390512 -0.0355974
0.0708999 -0.0390512 -0.0355974
0.0708999 -0.0390512 -0.0355974
0.0708999 -0.0390512 -0.0355974
0.0708999 -0.0390512 -0.0355974
0.0708999 -0.0390512 -0.0355976
0.0708999 -0.0390512 -0.0355976
0.0708999 -0.0390512 -0.0355976
0.0708999 -0.0390512 -0.0355976
0.0708999 -0.0390512 -0.0355976
0.0706728 -0.0389288 -0.0355976
0.0706728 -0.0389288 -0.0355976
0.0706728 -0.0389288 -0.0355976
0.0706728 -0.0389288 -0.0355976
0.0706728 -0.0389288 -0.0355976
0.0706728 -0.0389288 -0.0355976
0.0706728 -0.0389288 -0.0355976
0.0706728 -0.0389288 -0.0355976
0.0706728 -0.0389288 -0.0355976
0.0706728 -0.0389288 -0.0355976
0.0706728 -0.0389288 -0.0355976
0.0706728 -0.0389288 -0.0355976
0.0706728 -0.0389288 -0.0355976
0.0706728 -0.0389288 -0.0355976
0.0706728 -0.0389288 -0.0355976
0.0706728 -0.0389288 -0.0355976
0.0706728 -0.0389288 -0.0355976
0.0706728 -0.0389288 -0.0355976
0.0706728 -0.0389288 -0.0355976
0.0706728 -0.0389288 -0.0355977
0.0706728 -0.0389288 -0.0355977
0.0706728 -0.0389288 -0.0355977
0.0706728 -0.0389288 -0.0355977
0.0706728 -0.0389288 -0.0355977
0.0706728 -0.0389288 -0.0355977
0.0706728 -0.0389288 -0.0355977
0.0706728 -0.0389288 -0.0355977
0.0706728 -0.0389288 -0.0355977
0.0706728 -0.0389288 -0.0355977
0.0706728 -0.0389288 -0.0355977
0.0706728 -0.0389288 -0.0355977
0.0706728 -0.0389288 -0.0355977
0.0706728 -0.0389288 -0.0355977
0.0706728 -0.0389288 -0.0355977
0.0706728 -0.0389288 -0.0355977
0.0706745 -0.0389318 -0.0355977
0.0706745 -0.0389318 -0.0355977
0.0706745 -0.0389318 -0.0355977
0.0706745 -0.0389318 -0.0355977
0.0706745 -0.0389318 -0.0355977
0.0706745 -0.0389318 -0.0355977
0.0706745 -0.0389318 -0.0355977
0.0706745 -0.0389318 -0.0355977
0.0706745 -0.0389318 -0.0355977
0.0706745 -0.0389318 -0.0355977
0.0706745 -0.0389318 -0.0355977
0.0706745 -0.0389318 -0.0355977
0.0706745 -0.0389318 -0.0355977
0.0706745 -0.0389318 -0.0355977
0.0706745 -0.0389318 -0.0355977
0.0706745 -0.0389318 -0.0355977
0.0706745 -0.0389318 -0.0355977
0.0706745 -0.0389318 -0.0355977
0.0706745 -0.0389318 -0.0355977
0.0706745 -0.0389318 -0.0355977
0.0706745 -0.0389318 -0.0355977
0.0706745 -0.0389318 -0.0355977
0.0706745 -0.0389318 -0.0355977
0.0706745 -0.0389318 -0.0355977
0.0706745 -0.0389318 -0.0355977
0.0706745 -0.0389318 -0.0355977
0.0706745 -0.0389318 -0.0355977
0.0706745 -0.0389318 -0.0355977
0.0706745 -0.0389318 -0.0355977
0.0706745 -0.0389318 -0.0355977
0.0706745 -0.0389318 -0.0355977
0.0706745 -0.0389318 -0.0355977
0.0706745 -0.0389318 -0.0355977
0.0706745 -0.0389318 -0.0355977
0.0706745 -0.0389318 -0.0355977
0.0706516 -0.0389286 -0.0355977
0.0706516 -0.0389286 -0.0355977
0.0706516 -0.0389286 -0.0355977
0.0706516 -0.0389286 -0.0355979
0.0706516 -0.0389286 -0.0355979
0.0706516 -0.0389286 -0.0355979
0.0706516 -0.0389286 -0.0355979
0.0706516 -0.0389286 -0.0355979
0.0706516 -0.0389286 -0.0355979
0.0706516 -0.0389286 -0.0355971
0.0706516 -0.0389286 -0.0355971
0.0706516 -0.0389286 -0.0355971
0.0706516 -0.0389286 -0.0355971
0.0706516 -0.0389286 -0.0355971
0.0706516 -0.0389286 -0.0355971
0.0706516 -0.0389286 -0.0355967
0.0706516 -0.0389286 -0.0355967
0.0706516 -0.0389286 -0.0355967
0.0706516 -0.0389286 -0.0355967
0.0706516 -0.0389286 -0.0355967
0.0706516 -0.0389286 -0.0355967
0.0706516 -0.0389286 -0.0355961
0.0706516 -0.0389286 -0.0355961
0.0706516 -0.0389286 -0.0355961
0.0706516 -0.0389286 -0.0355961
0.0706516 -0.0389286 -0.0355961
0.0706516 -0.0389286 -0.0355961
0.0706516 -0.0389286 -0.035596
0.0706516 -0.0389286 -0.035596
0.0706516 -0.0389286 -0.035596
0.0706516 -0.0389286 -0.035596
0.0706516 -0.0389286 -0.035596
0.0706516 -0.0389286 -0.035596
0.0706516 -0.0389286 -0.035596
0.0706516 -0.0389286 -0.035596
0.0706538 -0.0389266 -0.035596
0.0706538 -0.0389266 -0.035596
0.0706538 -0.0389266 -0.035596
0.0706538 -0.0389266 -0.035596
0.0706538 -0.0389266 -0.035596
0.0706538 -0.0389266 -0.035596
0.0706538 -0.0389266 -0.035596
0.0706538 -0.0389266 -0.035596
0.0706538 -0.0389266 -0.035596
0.0706538 -0.0389266 -0.035596
0.0706538 -0.0389266 -0.035596
0.0706538 -0.0389266 -0.035596
0.0706538 -0.0389266 -0.035596
0.0706538 -0.0389266 -0.035596
0.0706538 -0.0389266 -0.035596
0.0706538 -0.0389266 -0.035596
0.0706538 -0.0389266 -0.035596
0.0706538 -0.0389266 -0.035596
0.0706538 -0.0389266 -0.035596
0.0706538 -0.0389266 -0.035596
0.0706538 -0.0389266 -0.035596
0.0706538 -0.0389266 -0.035596
0.0706538 -0.0389266 -0.035596
0.0706538 -0.0389266 -0.035596
0.0706538 -0.0389266 -0.035596
0.0706538 -0.0389266 -0.035596
0.0706538 -0.0389266 -0.035596
0.0706538 -0.0389266 -0.035596
0.0706538 -0.0389266 -0.035596
0.0706538 -0.0389266 -0.035596
0.0706538 -0.0389266 -0.035596
0.0706538 -0.0389266 -0.035596
0.0706538 -0.0389266 -0.035596
0.0706538 -0.0389266 -0.035596
0.0706538 -0.0389266 -0.035596
0.0706541 -0.0389271 -0.035596
0.0706541 -0.0389271 -0.035596
0.0706541 -0.0389271 -0.035596
0.0706541 -0.0389271 -0.035596
0.0706541 -0.0389271 -0.035596
0.0706541 -0.0389271 -0.035596
0.0706541 -0.0389271 -0.035596
0.0706541 -0.0389271 -0.035596
0.0706541 -0.0389271 -0.035596
0.0706541 -0.0389271 -0.035596
0.0706541 -0.0389271 -0.035596
0.0706541 -0.0389271 -0.035596
0.0706541 -0.0389271 -0.035596
0.0706541 -0.0389271 -0.035596
0.0706541 -0.0389271 -0.035596
0.0706541 -0.0389271 -0.035596
0.0706541 -0.0389271 -0.035596
0.0706541 -0.0389271 -0.035596
0.0706541 -0.0389271 -0.035596
0.0706541 -0.0389271 -0.035596
0.0706541 -0.0389271 -0.035596
0.0706541 -0.0389271 -0.035596
0.0706541 -0.0389271 -0.035596
0.0706541 -0.0389271 -0.035596
0.0706541 -0.0389271 -0.035596
0.0706541 -0.0389271 -0.035596
0.0706541 -0.0389271 -0.035596
0.0706541 -0.0389271 -0.035596
0.0706541 -0.0389271 -0.035596
0.0706541 -0.0389271 -0.035596
0.0706541 -0.0389271 -0.035596
0.0706541 -0.0389271 -0.035596
0.0706541 -0.0389271 -0.035596
0.0706541 -0.0389271 -0.035596
0.0706541 -0.0389271 -0.035596
0.0706533 -0.0389269 -0.035596
0.0706533 -0.0389269 -0.035596
0.0706533 -0.0389269 -0.035596
0.0706533 -0.0389269 -0.035596
0.0706533 -0.0389269 -0.035596
0.0706533 -0.0389269 -0.035596
0.0706533 -0.0389269 -0.035596
0.0706533 -0.0389269 -0.035596
0.0706533 -0.0389269 -0.035596
0.0706533 -0.0389269 -0.035596
0.0706533 -0.0389269 -0.035596
0.0706533 -0.0389269 -0.035596
0.0706533 -0.0389269 -0.035596
0.0706533 -0.0389269 -0.035596
0.0706533 -0.0389269 -0.035596
0.0706533 -0.0389269 -0.035596
0.0706533 -0.0389269 -0.035596
0.0706533 -0.0389269 -0.035596
0.0706533 -0.0389269 -0.035596
0.0706533 -0.0389269 -0.035596
0.0706533 -0.0389269 -0.035596
0.0706533 -0.0389269 -0.035596
0.0706533 -0.0389269 -0.035596
0.0706533 -0.0389269 -0.035596
0.0706533 -0.0389269 -0.035596
0.0706533 -0.0389269 -0.035596
0.0706533 -0.0389269 -0.035596
0.0706533 -0.0389269 -0.035596
0.0706533 -0.0389269 -0.035596
0.0706533 -0.0389269 -0.035596
0.0706533 -0.0389269 -0.035596
0.0706533 -0.0389269 -0.035596
0.0706533 -0.0389269 -0.035596
0.0706533 -0.0389269 -0.035596
0.0706533 -0.0389269 -0.035596
0.0706535 -0.0389271 -0.035596
0.0706535 -0.0389271 -0.035596
0.0706535 -0.0389271 -0.035596
0.0706535 -0.0389271 -0.035596
0.0706535 -0.0389271 -0.035596
0.0706535 -0.0389271 -0.035596
0.0706535 -0.0389271 -0.035596
0.0706535 -0.0389271 -0.035596
0.0706535 -0.0389271 -0.035596
0.0706535 -0.0389271 -0.035596
0.0706535 -0.0389271 -0.035596
0.0706535 -0.0389271 -0.035596
0.0706535 -0.0389271 -0.035596
0.0706535 -0.0389271 -0.035596
0.0706535 -0.0389271 -0.035596
0.0706535 -0.0389271 -0.035596
0.0706535 -0.0389271 -0.035596
0.0706535 -0.0389271 -0.035596
0.0706535 -0.0389271 -0.035596
0.0706535 -0.0389271 -0.035596
0.0706535 -0.0389271 -0.035596
0.0706535 -0.0389271 -0.035596
0.0706535 -0.0389271 -0.035596
0.0706535 -0.0389271 -0.035596
0.0706535 -0.0389271 -0.035596
0.0706535 -0.0389271 -0.035596
0.0706535 -0.0389271 -0.035596
0.0706535 -0.0389271 -0.035596
0.0706535 -0.0389271 -0.035596
0.0706535 -0.0389271 -0.035596
0.0706535 -0.0389271 -0.035596
0.0706535 -0.0389271 -0.035596
0.0706535 -0.0389271 -0.035596
0.0706535 -0.0389271 -0.035596
0.0706535 -0.0389271 -0.035596
0.0706536 -0.0389271 -0.035596
0.0706536 -0.0389271 -0.035596
0.0706536 -0.0389271 -0.035596
0.0706536 -0.0389271 -0.035596
0.0706536 -0.0389271 -0.035596
0.0706536 -0.0389271 -0.035596
0.0706536 -0.0389271 -0.035596
0.0706536 -0.0389271 -0.035596
0.0706536 -0.0389271 -0.035596
0.0706536 -0.0389271 -0.035596
0.0706536 -0.0389271 -0.035596
0.0706536 -0.0389271 -0.035596
0.0706536 -0.0389271 -0.035596
0.0706536 -0.0389271 -0.035596
0.0706536 -0.0389271 -0.035596
0.0706536 -0.0389271 -0.035596
0.0706536 -0.0389271 -0.035596
0.0706536 -0.0389271 -0.035596
0.0706536 -0.0389271 -0.035596
0.0706536 -0.0389271 -0.035596
0.0706536 -0.0389271 -0.035596
0.0706536 -0.0389271 -0.035596
0.0706536 -0.0389271 -0.035596
0.0706536 -0.0389271 -0.035596
0.0706536 -0.0389271 -0.035596
0.0706536 -0.0389271 -0.035596
0.0706536 -0.0389271 -0.035596
0.0706536 -0.0389271 -0.035596
0.0706536 -0.0389271 -0.035596
0.0706536 -0.0389271 -0.035596
0.0706536 -0.0389271 -0.035596
0.0706536 -0.0389271 -0.035596
0.0706536 -0.0389271 -0.0355959
0.0706536 -0.0389271 -0.0355959
0.0706536 -0.0389271 -0.0355959
0.0706536 -0.0389271 -0.0355959
0.0706536 -0.0389271 -0.0355959
0.0706536 -0.0389271 -0.0355959
0.0706536 -0.0389271 -0.0355959
0.0706536 -0.0389271 -0.0355959
0.0706536 -0.0389271 -0.0355959
0.0706536 -0.0389271 -0.0355959
0.0706536 -0.0389271 -0.0355959
0.0706536 -0.0389271 -0.0355959
0.0706536 -0.0389271 -0.0355959
0.0706536 -0.0389271 -0.0355959
0.0706536 -0.0389271 -0.0355959
0.0706536 -0.0389271 -0.0355959
0.0706536 -0.0389271 -0.0355959
0.0706536 -0.0389271 -0.0355959
0.0706536 -0.0389271 -0.0355959
0.0706536 -0.0389271 -0.0355959
0.0706536 -0.0389271 -0.0355959
0.0706536 -0.0389271 -0.0355959
0.0706536 -0.0389271 -0.0355959
0.0706536 -0.0389271 -0.0355959
0.0706536 -0.0389271 -0.0355959
0.0706536 -0.0389271 -0.0355959
0.0706536 -0.0389271 -0.0355959
0.0706536 -0.0389271 -0.0355959
0.0706536 -0.0389271 -0.0355959
0.0706536 -0.0389271 -0.0355959
0.0706536 -0.0389271 -0.0355959
0.0706536 -0.0389271 -0.0355959
0.0706536 -0.0389271 -0.0355959
0.0706536 -0.0389271 -0.0355959
0.0706536 -0.0389271 -0.0355959
0.0706536 -0.0389271 -0.0355959
0.0706536 -0.0389271 -0.0355959
0.0706536 -0.0389271 -0.0355959
0.0706536 -0.0389271 -0.0355959
0.0706536 -0.0389271 -0.0355959
0.0706536 -0.0389271 -0.0355959
0.0706536 -0.0389271 -0.0355959
0.0706536 -0.0389271 -0.035596
0.0706536 -0.0389271 -0.035596
0.0706536 -0.0389271 -0.035596
0.0706536 -0.0389271 -0.035596
0.0706536 -0.0389271 -0.035596
0.0706536 -0.0389271 -0.035596
0.0706536 -0.0389271 -0.035596
0.0706536 -0.0389271 -0.035596
0.0706536 -0.0389271 -0.035596
0.0706536 -0.0389271 -0.035596
0.0706536 -0.0389271 -0.035596
0.0706536 -0.0389271 -0.035596
0.0706536 -0.0389271 -0.035596
0.0706536 -0.0389271 -0.035596
0.0706536 -0.0389271 -0.035596
0.0706536 -0.0389271 -0.035596
0.0706536 -0.0389271 -0.035596
0.0706536 -0.0389271 -0.035596
0.0706536 -0.0389271 -0.035596
0.0706536 -0.0389271 -0.035596
0.0706536 -0.0389271 -0.035596
0.0706536 -0.0389271 -0.035596
0.0706536 -0.0389271 -0.035596
0.0706536 -0.0389271 -0.035596
0.0706536 -0.0389271 -0.035596
0.0706536 -0.0389271 -0.035596
0.0706536 -0.0389271 -0.035596
0.0706536 -0.0389271 -0.035596
0.0706536 -0.0389271 -0.035596
0.0706536 -0.0389271 -0.035596
0.0706536 -0.0389271 -0.035596
0.0706535 -0.038927 -0.035596
0.0706535 -0.038927 -0.035596
0.0706535 -0.038927 -0.035596
0.0706535 -0.038927 -0.035596
0.0706535 -0.038927 -0.035596
0.0706535 -0.038927 -0.035596
0.0706535 -0.038927 -0.035596
0.0706535 -0.038927 -0.035596
0.0706535 -0.038927 -0.035596
0.0706535 -0.038927 -0.035596
0.0706535 -0.038927 -0.035596
0.0706535 -0.038927 -0.035596
0.0706535 -0.038927 -0.035596
0.0706535 -0.038927 -0.035596
0.0706535 -0.038927 -0.035596
0.0706535 -0.038927 -0.035596
0.0706535 -0.038927 -0.035596
0.0706535 -0.038927 -0.035596
0.0706535 -0.038927 -0.035596
0.0706535 -0.038927 -0.035596
0.0706535 -0.038927 -0.035596
0.0706535 -0.038927 -0.035596
0.0706535 -0.038927 -0.035596
0.0706535 -0.038927 -0.035596
0.0706535 -0.038927 -0.035596
0.0706535 -0.038927 -0.035596
0.0706535 -0.038927 -0.035596
0.0706535 -0.038927 -0.035596
0.0706535 -0.038927 -0.035596
0.0706535 -0.038927 -0.035596
0.0706535 -0.038927 -0.035596
0.0706535 -0.038927 -0.035596
0.0706535 -0.038927 -0.035596
0.0706535 -0.038927 -0.035596
0.0706535 -0.038927 -0.035596
0.0706536 -0.038927 -0.035596
0.0706536 -0.038927 -0.035596
0.0706536 -0.038927 -0.035596
0.0706536 -0.038927 -0.035596
0.0706536 -0.038927 -0.035596
0.0706536 -0.038927 -0.035596
0.0706536 -0.038927 -0.035596
0.0706536 -0.038927 -0.035596
0.0706536 -0.038927 -0.035596
0.0706536 -0.038927 -0.035596
0.0706536 -0.038927 -0.035596
0.0706536 -0.038927 -0.035596
0.0706536 -0.038927 -0.035596
0.0706536 -0.038927 -0.035596
0.0706536 -0.038927 -0.035596
0.0706536 -0.038927 -0.035596
0.0706536 -0.038927 -0.035596
0.0706536 -0.038927 -0.035596
0.0706536 -0.038927 -0.035596
0.0706536 -0.038927 -0.035596
0.0706536 -0.038927 -0.035596
0.0706536 -0.038927 -0.035596
0.0706536 -0.038927 -0.035596
0.0706536 -0.038927 -0.035596
0.0706536 -0.038927 -0.035596
0.0706536 -0.038927 -0.035596
0.0706536 -0.038927 -0.035596
0.0706536 -0.038927 -0.035596
0.0706536 -0.038927 -0.035596
0.0706536 -0.038927 -0.035596
0.0706536 -0.038927 -0.035596
0.0706536 -0.038927 -0.035596
0.0706536 -0.038927 -0.035596
0.0706536 -0.038927 -0.035596
0.0706536 -0.038927 -0.035596
0.0706535 -0.0389273 -0.035596
0.0706535 -0.0389273 -0.035596
0.0706535 -0.0389273 -0.035596
0.0706535 -0.0389273 -0.035596
0.0706535 -0.0389273 -0.035596
0.0706535 -0.0389273 -0.035596
0.0706535 -0.0389273 -0.035596
0.0706535 -0.0389273 -0.035596
0.0706535 -0.0389273 -0.035596
0.0706535 -0.0389273 -0.035596
0.0706535 -0.0389273 -0.035596
0.0706535 -0.0389273 -0.035596
0.0706535 -0.0389273 -0.035596
0.0706535 -0.0389273 -0.035596
0.0706535 -0.0389273 -0.035596
0.0706535 -0.0389273 -0.035596
0.0706535 -0.0389273 -0.035596
0.0706535 -0.0389273 -0.035596
0.0706535 -0.0389273 -0.035596
0.0706535 -0.0389273 -0.0355959
0.0706535 -0.0389273 -0.0355959
0.0706535 -0.0389273 -0.0355959
0.0706535 -0.0389273 -0.0355959
0.0706535 -0.0389273 -0.0355959
0.0706535 -0.0389273 -0.0355959
0.0706535 -0.0389273 -0.0355959
0.0706535 -0.0389273 -0.0355959
0.0706535 -0.0389273 -0.0355959
0.0706535 -0.0389273 -0.0355959
0.0706535 -0.0389273 -0.0355959
0.0706535 -0.0389273 -0.0355959
0.0706535 -0.0389273 -0.0355959
0.0706535 -0.0389273 -0.0355959
0.0706535 -0.0389273 -0.0355959
0.0706535 -0.0389273 -0.0355959
