-0.00726329 -0.00640172 -0.011342
-0.00726329 -0.00640172 0.0124627
-0.00726329 -0.00640172 0.0149182
-0.00726329 -0.00640172 0.00246281
-0.00726329 -0.00640172 0.0187639
0.0621745 0.0828867 0.00766022
0.0621745 0.0828867 0.0383004
0.0621745 0.0828867 0.0564087
0.0621745 0.0828867 0.0535999
0.0621745 0.0828867 0.0535118
0.0099958 -0.00551107 0.0506758
0.0099958 -0.00551107 0.0507824
0.0099958 -0.00551107 0.053185
0.0099958 -0.00551107 0.0521969
0.0099958 -0.00551107 0.0337052
0.0025818 -0.0197478 0.0494139
0.0025818 -0.0197478 0.0474792
0.0025818 -0.0197478 0.037449
0.0025818 -0.0197478 0.0347607
0.0025818 -0.0197478 0.0335187
-0.0117901 -0.049623 0.0392528
-0.0117901 -0.049623 0.0415258
-0.0117901 -0.049623 0.0342239
-0.0117901 -0.049623 0.031907
-0.0117901 -0.049623 0.0296821
-0.0103258 -0.0419267 0.0304041
-0.0103258 -0.0419267 0.0293537
-0.0103258 -0.0419267 0.0316531
-0.0103258 -0.0419267 0.0294992
-0.0103258 -0.0419267 0.0293991
-0.0207927 -0.0392345 0.0294867
-0.0207927 -0.0392345 0.0294896
-0.0207927 -0.0392345 0.0298284
-0.0207927 -0.0392345 0.0297883
-0.0207927 -0.0392345 0.0293149
-0.0207685 -0.0392438 0.0293393
-0.0207685 -0.0392438 0.0291814
-0.0207685 -0.0392438 0.0294162
-0.0207685 -0.0392438 0.0290495
-0.0207685 -0.0392438 0.0291314
-0.0208158 -0.0382241 0.0290121
-0.0208158 -0.0382241 0.0290115
-0.0208158 -0.0382241 0.0296459
-0.0208158 -0.0382241 0.0296952
-0.0208158 -0.0382241 0.0295947
-0.0195881 -0.0387267 0.0297756
-0.0195881 -0.0387267 0.0297109
-0.0195881 -0.0387267 0.02964
-0.0195881 -0.0387267 0.0296576
-0.0195881 -0.0387267 0.0296817
-0.0185385 -0.039011 0.0296852
-0.0185385 -0.039011 0.0296885
-0.0185385 -0.039011 0.0296889
-0.0185385 -0.039011 0.0296451
-0.0185385 -0.039011 0.0296772
-0.0185068 -0.0386769 0.0296444
-0.0185068 -0.0386769 0.0296604
-0.0185068 -0.0386769 0.0296609
-0.0185068 -0.0386769 0.02969
-0.0185068 -0.0386769 0.0296549
-0.0183585 -0.0384809 0.0296744
-0.0183585 -0.0384809 0.029677
-0.0183585 -0.0384809 0.0296761
-0.0183585 -0.0384809 0.0296593
-0.0183585 -0.0384809 0.0296618
-0.0185233 -0.0381996 0.0296596
-0.0185233 -0.0381996 0.0296521
-0.0185233 -0.0381996 0.0296629
-0.0185233 -0.0381996 0.0296605
-0.0185233 -0.0381996 0.0296599
-0.0186508 -0.0382538 0.0296592
-0.0186508 -0.0382538 0.0296591
-0.0186508 -0.0382538 0.0296599
-0.0186508 -0.0382538 0.0296572
-0.0186508 -0.0382538 0.0296588
-0.0186456 -0.0382634 0.0296571
-0.0186456 -0.0382634 0.0296567
-0.0186456 -0.0382634 0.0296546
-0.0186456 -0.0382634 0.029656
-0.0186456 -0.0382634 0.0296549
-0.018656 -0.0382495 0.029657
-0.018656 -0.0382495 0.029657
-0.018656 -0.0382495 0.0296579
-0.018656 -0.0382495 0.029659
-0.018656 -0.0382495 0.0296591
-0.0186118 -0.038233 0.0296592
-0.0186118 -0.038233 0.0296594
-0.0186118 -0.038233 0.0296593
-0.0186118 -0.038233 0.0296592
-0.0186118 -0.038233 0.0296591
-0.0186158 -0.0382222 0.0296591
-0.0186158 -0.0382222 0.0296591
-0.0186158 -0.0382222 0.0296592
-0.0186158 -0.0382222 0.0296592
-0.0186158 -0.0382222 0.0296592
-0.0186138 -0.0382267 0.0296592
-0.0186138 -0.0382267 0.0296592
-0.0186138 -0.0382267 0.0296592
-0.0186138 -0.0382267 0.0296592
-0.0186138 -0.0382267 0.0296592
-0.0186145 -0.038227 0.0296591
-0.0186145 -0.038227 0.0296591
-0.0186145 -0.038227 0.0296591
-0.0186145 -0.038227 0.0296591
-0.0186145 -0.038227 0.0296591
-0.0186156 -0.0382339 0.0296591
-0.0186156 -0.0382339 0.0296591
-0.0186156 -0.0382339 0.0296591
-0.0186156 -0.0382339 0.0296592
-0.0186156 -0.0382339 0.0296592
-0.0186138 -0.0382323 0.0296592
-0.0186138 -0.0382323 0.0296592
-0.0186138 -0.0382323 0.0296592
-0.0186138 -0.0382323 0.0296592
-0.0186138 -0.0382323 0.0296592
-0.0186141 -0.0382318 0.0296592
-0.0186141 -0.0382318 0.0296592
-0.0186141 -0.0382318 0.0296592
-0.0186141 -0.0382318 0.0296591
-0.0186141 -0.0382318 0.029659
-0.0186141 -0.0382318 0.029659
-0.0186141 -0.0382318 0.0296591
-0.0186141 -0.0382318 0.0296591
-0.0186141 -0.0382318 0.0296591
-0.0186141 -0.0382318 0.0296591
-0.0186134 -0.0382319 0.0296591
-0.0186134 -0.0382319 0.0296591
-0.0186134 -0.0382319 0.029659
-0.0186134 -0.0382319 0.029659
-0.0186134 -0.0382319 0.029659
-0.0186137 -0.0382318 0.029659
-0.0186137 -0.0382318 0.029659
-0.0186137 -0.0382318 0.029659
-0.0186137 -0.0382318 0.029659
-0.0186137 -0.0382318 0.029659
-0.0186138 -0.0382317 0.029659
-0.0186138 -0.0382317 0.029659
-0.0186138 -0.0382317 0.029659
-0.0186138 -0.0382317 0.029659
-0.0186138 -0.0382317 0.029659
-0.0186138 -0.0382317 0.029659
-0.0186138 -0.0382317 0.029659
-0.0186138 -0.0382317 0.029659
-0.0186138 -0.0382317 0.029659
-0.0186138 -0.0382317 0.029659
-0.0186138 -0.0382317 0.029659
-0.0186138 -0.0382317 0.029659
-0.0186138 -0.0382317 0.029659
-0.0186138 -0.0382317 0.0296589
-0.0186138 -0.0382317 0.0296589
-0.0186138 -0.0382317 0.0296588
-0.0186138 -0.0382317 0.0296589
-0.0186138 -0.0382317 0.0296589
-0.0186138 -0.0382317 0.0296589
-0.0186138 -0.0382317 0.0296587
-0.0186138 -0.0382317 0.0296588
-0.0186138 -0.0382317 0.0296587
-0.0186138 -0.0382317 0.0296589
-0.0186138 -0.0382317 0.0296589
-0.0186138 -0.0382317 0.0296588
-0.0186137 -0.0382316 0.0296588
-0.0186137 -0.0382316 0.0296588
-0.0186137 -0.0382316 0.0296587
-0.0186137 -0.0382316 0.0296587
-0.0186137 -0.0382316 0.0296588
-0.0186137 -0.0382316 0.0296588
-0.0186137 -0.0382316 0.0296588
-0.0186137 -0.0382316 0.0296589
-0.0186137 -0.0382316 0.0296589
-0.0186137 -0.0382316 0.0296588
-0.0186137 -0.0382316 0.0296588
-0.0186137 -0.0382316 0.029659
-0.0186137 -0.0382316 0.029659
-0.0186137 -0.0382316 0.029659
-0.0186137 -0.0382316 0.0296591
-0.0186137 -0.0382316 0.0296591
-0.0186137 -0.0382316 0.0296591
-0.0186137 -0.0382316 0.0296589
-0.0186137 -0.0382316 0.0296589
-0.0186137 -0.0382316 0.029659
-0.0186137 -0.0382316 0.029659
-0.0186137 -0.0382316 0.029659
-0.0186137 -0.0382316 0.029659
-0.0186137 -0.0382316 0.029659
-0.0186137 -0.0382316 0.0296591
-0.0186137 -0.0382316 0.0296592
-0.0186137 -0.0382316 0.0296592
-0.0186137 -0.0382316 0.0296592
-0.0186137 -0.0382316 0.0296592
-0.0186137 -0.0382316 0.0296594
-0.0186137 -0.0382316 0.0296591
-0.0186137 -0.0382316 0.0296591
-0.0186137 -0.0382316 0.029659
-0.0186137 -0.0382316 0.029659
-0.0186137 -0.0382316 0.029659
-0.0186137 -0.0382316 0.0296588
-0.0186137 -0.0382316 0.0296589
-0.0186137 -0.0382316 0.0296588
-0.0186137 -0.0382316 0.0296589
-0.0186137 -0.0382316 0.0296589
-0.0186137 -0.0382316 0.0296589
-0.0186137 -0.0382316 0.0296588
-0.0186137 -0.0382316 0.0296588
-0.0186137 -0.0382316 0.0296588
-0.0186137 -0.0382316 0.0296589
-0.0186136 -0.0382316 0.0296589
-0.0186136 -0.0382316 0.0296587
-0.0186136 -0.0382316 0.0296587
-0.0186136 -0.0382316 0.0296587
-0.0186136 -0.0382316 0.0296588
-0.0186137 -0.0382316 0.0296588
-0.0186137 -0.0382316 0.0296588
-0.0186137 -0.0382316 0.0296588
-0.0186137 -0.0382316 0.0296588
-0.0186137 -0.0382316 0.0296589
-0.0186137 -0.0382316 0.0296588
-0.0186137 -0.0382316 0.0296586
-0.0186137 -0.0382316 0.0296586
-0.0186137 -0.0382316 0.0296584
-0.0186137 -0.0382316 0.0296584
-0.0186136 -0.0382316 0.0296585
-0.0186136 -0.0382316 0.0296584
-0.0186136 -0.0382316 0.0296585
-0.0186136 -0.0382316 0.0296585
-0.0186136 -0.0382316 0.0296585
-0.0186136 -0.0382316 0.0296585
-0.0186136 -0.0382316 0.0296587
-0.0186136 -0.0382316 0.0296587
-0.0186136 -0.0382316 0.0296587
-0.0186136 -0.0382316 0.0296587
-0.0186136 -0.0382315 0.0296584
-0.0186136 -0.0382315 0.0296585
-0.0186136 -0.0382315 0.0296586
-0.0186136 -0.0382315 0.0296586
-0.0186136 -0.0382315 0.0296586
-0.0186136 -0.0382316 0.0296589
-0.0186136 -0.0382316 0.0296585
-0.0186136 -0.0382316 0.0296586
-0.0186136 -0.0382316 0.0296588
-0.0186136 -0.0382316 0.0296589
-0.0186136 -0.0382315 0.0296591
-0.0186136 -0.0382315 0.0296592
-0.0186136 -0.0382315 0.0296588
-0.0186136 -0.0382315 0.0296587
-0.0186136 -0.0382315 0.0296587
-0.0186135 -0.0382315 0.0296587
-0.0186135 -0.0382315 0.0296587
-0.0186135 -0.0382315 0.0296586
-0.0186135 -0.0382315 0.0296586
-0.0186135 -0.0382315 0.0296586
-0.0186135 -0.0382315 0.0296586
-0.0186135 -0.0382315 0.0296586
-0.0186135 -0.0382315 0.0296585
-0.0186135 -0.0382315 0.0296586
-0.0186135 -0.0382315 0.0296585
-0.0186136 -0.0382315 0.0296585
-0.0186136 -0.0382315 0.0296585
-0.0186136 -0.0382315 0.0296587
-0.0186136 -0.0382315 0.0296587
-0.0186136 -0.0382315 0.0296587
-0.0186135 -0.0382315 0.0296587
-0.0186135 -0.0382315 0.0296587
-0.0186135 -0.0382315 0.0296588
-0.0186135 -0.0382315 0.0296588
-0.0186135 -0.0382315 0.0296588
-0.0186135 -0.0382315 0.0296588
-0.0186135 -0.0382315 0.0296588
-0.0186135 -0.0382315 0.0296588
-0.0186135 -0.0382315 0.0296588
-0.0186135 -0.0382315 0.0296587
-0.0186135 -0.0382314 0.0296587
-0.0186135 -0.0382314 0.0296587
-0.0186135 -0.0382314 0.0296587
-0.0186135 -0.0382314 0.0296588
-0.0186135 -0.0382314 0.0296589
-0.0186135 -0.0382314 0.0296589
-0.0186135 -0.0382314 0.029659
-0.0186135 -0.0382314 0.0296587
-0.0186135 -0.0382314 0.0296588
-0.0186135 -0.0382314 0.0296588
-0.0186134 -0.0382315 0.0296587
-0.0186134 -0.0382315 0.0296587
-0.0186134 -0.0382315 0.0296588
-0.0186134 -0.0382315 0.0296589
-0.0186134 -0.0382315 0.0296589
-0.0186134 -0.0382314 0.0296591
-0.0186134 -0.0382314 0.0296589
-0.0186134 -0.0382314 0.0296589
-0.0186134 -0.0382314 0.029659
-0.0186134 -0.0382314 0.0296589
-0.0186134 -0.0382315 0.0296589
-0.0186134 -0.0382315 0.0296589
-0.0186134 -0.0382315 0.0296589
-0.0186134 -0.0382315 0.0296589
-0.0186134 -0.0382315 0.0296589
-0.0186139 -0.0382313 0.0296588
-0.0186139 -0.0382313 0.0296588
-0.0186139 -0.0382313 0.0296588
-0.0186139 -0.0382313 0.0296587
-0.0186139 -0.0382313 0.0296587
-0.018614 -0.0382314 0.0296589
-0.018614 -0.0382314 0.0296588
-0.018614 -0.0382314 0.0296588
-0.018614 -0.0382314 0.0296587
-0.018614 -0.0382314 0.0296588
-0.018614 -0.0382313 0.0296587
-0.018614 -0.0382313 0.0296585
-0.018614 -0.0382313 0.0296585
-0.018614 -0.0382313 0.0296587
-0.018614 -0.0382313 0.0296586
-0.018614 -0.0382313 0.0296584
-0.018614 -0.0382313 0.0296585
-0.018614 -0.0382313 0.0296584
-0.018614 -0.0382313 0.0296585
-0.018614 -0.0382313 0.0296586
-0.0186141 -0.0382314 0.0296586
-0.0186141 -0.0382314 0.0296586
-0.0186141 -0.0382314 0.0296585
-0.0186141 -0.0382314 0.0296586
-0.0186141 -0.0382314 0.0296585
-0.0186152 -0.0382324 0.0296585
-0.0186152 -0.0382324 0.0296585
-0.0186152 -0.0382324 0.0296583
-0.0186152 -0.0382324 0.0296582
-0.0186152 -0.0382324 0.0296582
-0.0186143 -0.0382315 0.0296583
-0.0186143 -0.0382315 0.0296583
-0.0186143 -0.0382315 0.0296581
-0.0186143 -0.0382315 0.0296581
-0.0186143 -0.0382315 0.0296581
-0.0186143 -0.0382316 0.0296582
-0.0186143 -0.0382316 0.0296582
-0.0186143 -0.0382316 0.0296582
-0.0186143 -0.0382316 0.0296582
-0.0186143 -0.0382316 0.0296581
-0.0186143 -0.0382316 0.0296581
-0.0186143 -0.0382316 0.029658
-0.0186143 -0.0382316 0.029658
-0.0186143 -0.0382316 0.029658
-0.0186143 -0.0382316 0.0296581
-0.0186143 -0.0382314 0.0296581
-0.0186143 -0.0382314 0.0296581
-0.0186143 -0.0382314 0.0296582
-0.0186143 -0.0382314 0.0296583
-0.0186143 -0.0382314 0.0296582
-0.0186143 -0.0382315 0.0296581
-0.0186143 -0.0382315 0.0296581
-0.0186143 -0.0382315 0.0296581
-0.0186143 -0.0382315 0.029658
-0.0186143 -0.0382315 0.0296581
-0.0186144 -0.0382314 0.0296581
-0.0186144 -0.0382314 0.0296582
-0.0186144 -0.0382314 0.0296583
-0.0186144 -0.0382314 0.0296583
-0.0186144 -0.0382314 0.0296582
-0.0186143 -0.0382314 0.0296582
-0.0186143 -0.0382314 0.0296583
-0.0186143 -0.0382314 0.0296581
-0.0186143 -0.0382314 0.0296581
-0.0186143 -0.0382314 0.0296582
-0.0186143 -0.0382314 0.0296583
-0.0186143 -0.0382314 0.0296581
-0.0186143 -0.0382314 0.0296581
-0.0186143 -0.0382314 0.0296582
-0.0186143 -0.0382314 0.0296582
-0.0186143 -0.0382314 0.0296582
-0.0186143 -0.0382314 0.0296582
-0.0186143 -0.0382314 0.0296583
-0.0186143 -0.0382314 0.0296583
-0.0186143 -0.0382314 0.0296584
-0.0186144 -0.0382314 0.0296583
-0.0186144 -0.0382314 0.0296583
-0.0186144 -0.0382314 0.0296582
-0.0186144 -0.0382314 0.0296583
-0.0186144 -0.0382314 0.0296583
-0.0186144 -0.0382314 0.0296582
-0.0186144 -0.0382314 0.0296582
-0.0186144 -0.0382314 0.0296582
-0.0186144 -0.0382314 0.0296583
-0.0186144 -0.0382314 0.0296582
-0.0186143 -0.0382314 0.0296582
-0.0186143 -0.0382314 0.0296582
-0.0186143 -0.0382314 0.0296583
-0.0186143 -0.0382314 0.0296583
-0.0186143 -0.0382314 0.0296584
-0.0186144 -0.0382314 0.0296583
-0.0186144 -0.0382314 0.0296583
-0.0186144 -0.0382314 0.0296582
-0.0186144 -0.0382314 0.0296581
-0.0186144 -0.0382314 0.0296581
-0.0186143 -0.0382314 0.0296581
-0.0186143 -0.0382314 0.029658
-0.0186143 -0.0382314 0.0296576
-0.0186143 -0.0382314 0.0296576
-0.0186143 -0.0382314 0.0296573
-0.0186143 -0.0382314 0.0296573
-0.0186143 -0.0382314 0.0296579
-0.0186143 -0.0382314 0.0296581
-0.0186143 -0.0382314 0.0296584
-0.0186143 -0.0382314 0.0296584
-0.0186143 -0.0382314 0.0296584
-0.0186143 -0.0382314 0.0296584
-0.0186143 -0.0382314 0.0296583
-0.0186143 -0.0382314 0.0296581
-0.0186143 -0.0382314 0.0296582
-0.0186144 -0.0382313 0.0296581
-0.0186144 -0.0382313 0.0296582
-0.0186144 -0.0382313 0.0296583
-0.0186144 -0.0382313 0.0296584
-0.0186144 -0.0382313 0.0296584
-0.0186144 -0.0382314 0.0296584
-0.0186144 -0.0382314 0.0296585
-0.0186144 -0.0382314 0.0296586
-0.0186144 -0.0382314 0.0296587
-0.0186144 -0.0382314 0.0296585
-0.0186143 -0.0382314 0.0296585
-0.0186143 -0.0382314 0.0296583
-0.0186143 -0.0382314 0.0296586
-0.0186143 -0.0382314 0.029658
-0.0186143 -0.0382314 0.029658
-0.0186143 -0.0382313 0.0296582
-0.0186143 -0.0382313 0.0296582
-0.0186143 -0.0382313 0.0296583
-0.0186143 -0.0382313 0.0296582
-0.0186143 -0.0382313 0.0296582
-0.0186143 -0.0382313 0.0296581
-0.0186143 -0.0382313 0.0296582
-0.0186143 -0.0382313 0.0296582
-0.0186143 -0.0382313 0.029658
-0.0186143 -0.0382313 0.0296586
-0.0186143 -0.0382314 0.0296584
-0.0186143 -0.0382314 0.0296579
-0.0186143 -0.0382314 0.0296583
-0.0186143 -0.0382314 0.0296581
-0.0186143 -0.0382314 0.0296579
-0.0186144 -0.0382313 0.0296581
-0.0186144 -0.0382313 0.0296587
-0.0186144 -0.0382313 0.0296587
-0.0186144 -0.0382313 0.0296586
-0.0186144 -0.0382313 0.0296581
-0.0186143 -0.0382313 0.029658
-0.0186143 -0.0382313 0.0296583
-0.0186143 -0.0382313 0.0296589
-0.0186143 -0.0382313 0.0296586
-0.0186143 -0.0382313 0.0296587
-0.0186143 -0.0382314 0.0296586
-0.0186143 -0.0382314 0.0296581
-0.0186143 -0.0382314 0.0296582
-0.0186143 -0.0382314 0.0296585
-0.0186143 -0.0382314 0.0296585
-0.0186143 -0.0382313 0.0296585
-0.0186143 -0.0382313 0.0296582
-0.0186143 -0.0382313 0.0296578
-0.0186143 -0.0382313 0.029658
-0.0186143 -0.0382313 0.029658
-0.0186143 -0.0382313 0.029658
-0.0186143 -0.0382313 0.029658
-0.0186143 -0.0382313 0.0296577
-0.0186143 -0.0382313 0.0296567
-0.0186143 -0.0382313 0.0296571
-0.0186144 -0.0382314 0.0296571
-0.0186144 -0.0382314 0.0296574
-0.0186144 -0.0382314 0.0296576
-0.0186144 -0.0382314 0.0296577
-0.0186144 -0.0382314 0.0296581
-0.0186143 -0.0382313 0.029658
-0.0186143 -0.0382313 0.0296579
-0.0186143 -0.0382313 0.0296583
-0.0186143 -0.0382313 0.0296581
-0.0186143 -0.0382313 0.029658
-0.0186143 -0.0382313 0.029658
-0.0186143 -0.0382313 0.0296581
-0.0186143 -0.0382313 0.0296582
-0.0186143 -0.0382313 0.029658
-0.0186143 -0.0382313 0.029658
-0.0186143 -0.0382313 0.0296579
-0.0186143 -0.0382313 0.029658
-0.0186143 -0.0382313 0.0296579
-0.0186143 -0.0382313 0.0296578
-0.0186143 -0.0382313 0.0296579
-0.0186143 -0.0382314 0.0296579
-0.0186143 -0.0382314 0.0296578
-0.0186143 -0.0382314 0.0296575
-0.0186143 -0.0382314 0.0296575
-0.0186143 -0.0382314 0.0296577
-0.0186143 -0.0382313 0.0296577
-0.0186143 -0.0382313 0.0296578
-0.0186143 -0.0382313 0.0296579
-0.0186143 -0.0382313 0.0296578
-0.0186143 -0.0382313 0.0296578
-0.0186143 -0.0382314 0.0296578
-0.0186143 -0.0382314 0.0296576
-0.0186143 -0.0382314 0.0296577
-0.0186143 -0.0382314 0.0296578
-0.0186143 -0.0382314 0.0296578
-0.0186143 -0.0382313 0.0296578
-0.0186143 -0.0382313 0.0296578
-0.0186143 -0.0382313 0.029658
-0.0186143 -0.0382313 0.0296588
-0.0186143 -0.0382313 0.029659
-0.0186142 -0.0382313 0.0296589
-0.0186142 -0.0382313 0.029659
-0.0186142 -0.0382313 0.0296588
-0.0186142 -0.0382313 0.0296587
-0.0186142 -0.0382313 0.029659
-0.0186143 -0.0382314 0.029659
-0.0186143 -0.0382314 0.029659
-0.0186143 -0.0382314 0.0296591
-0.0186143 -0.0382314 0.0296589
-0.0186143 -0.0382314 0.0296591
-0.0186143 -0.0382314 0.0296586
-0.0186143 -0.0382314 0.0296587
-0.0186143 -0.0382314 0.0296587
-0.0186143 -0.0382314 0.0296588
-0.0186143 -0.0382314 0.0296588
-0.0186143 -0.0382313 0.0296586
-0.0186143 -0.0382313 0.0296587
-0.0186143 -0.0382313 0.0296588
-0.0186143 -0.0382313 0.0296586
-0.0186143 -0.0382313 0.0296587
-0.0186143 -0.0382313 0.0296585
-0.0186143 -0.0382313 0.0296587
-0.0186143 -0.0382313 0.0296585
-0.0186143 -0.0382313 0.0296585
-0.0186143 -0.0382313 0.0296585
-0.0186143 -0.0382313 0.0296588
-0.0186143 -0.0382313 0.0296587
-0.0186143 -0.0382313 0.0296588
-0.0186143 -0.0382313 0.0296587
-0.0186143 -0.0382313 0.0296586
-0.0186143 -0.0382313 0.0296588
-0.0186143 -0.0382313 0.0296588
-0.0186143 -0.0382313 0.0296589
-0.0186143 -0.0382313 0.0296588
-0.0186143 -0.0382313 0.0296589
-0.0186143 -0.0382317 0.0296586
-0.0186143 -0.0382317 0.0296587
-0.0186143 -0.0382317 0.0296587
-0.0186143 -0.0382317 0.0296588
-0.0186143 -0.0382317 0.0296587
-0.0186149 -0.0382311 0.0296587
-0.0186149 -0.0382311 0.0296587
-0.0186149 -0.0382311 0.0296587
-0.0186149 -0.0382311 0.0296586
-0.0186149 -0.0382311 0.0296589
-0.0186149 -0.0382312 0.0296591
-0.0186149 -0.0382312 0.029659
-0.0186149 -0.0382312 0.0296588
-0.0186149 -0.0382312 0.0296588
-0.0186149 -0.0382312 0.0296589
-0.0186149 -0.0382312 0.0296589
-0.0186149 -0.0382312 0.0296589
-0.0186149 -0.0382312 0.0296589
-0.0186149 -0.0382312 0.0296589
-0.0186149 -0.0382312 0.0296589
-0.0186148 -0.0382312 0.0296588
-0.0186148 -0.0382312 0.029659
-0.0186148 -0.0382312 0.0296591
-0.0186148 -0.0382312 0.0296591
-0.0186148 -0.0382312 0.029659
-0.0186148 -0.0382312 0.0296589
-0.0186148 -0.0382312 0.0296589
-0.0186148 -0.0382312 0.0296587
-0.0186148 -0.0382312 0.0296586
-0.0186148 -0.0382312 0.0296587
-0.0186148 -0.0382312 0.0296587
-0.0186148 -0.0382312 0.0296588
-0.0186148 -0.0382312 0.029659
-0.0186148 -0.0382312 0.029659
-0.0186148 -0.0382312 0.0296589
-0.0186148 -0.0382312 0.0296591
-0.0186148 -0.0382312 0.0296592
-0.0186148 -0.0382312 0.0296593
-0.0186148 -0.0382312 0.029659
-0.0186148 -0.0382312 0.029659
-0.0186148 -0.0382312 0.029659
-0.0186148 -0.0382312 0.0296589
-0.0186148 -0.0382312 0.029659
-0.0186148 -0.0382312 0.029659
-0.0186148 -0.0382312 0.0296589
-0.0186148 -0.0382312 0.0296588
-0.0186148 -0.0382312 0.0296589
-0.0186148 -0.0382312 0.0296588
-0.0186148 -0.0382312 0.0296589
-0.0186148 -0.0382312 0.0296585
-0.0186148 -0.0382312 0.0296587
-0.0186148 -0.0382312 0.0296589
-0.0186148 -0.0382312 0.0296591
-0.0186148 -0.0382312 0.029659
-0.0186148 -0.0382312 0.0296591
-0.0186148 -0.0382312 0.0296589
-0.0186148 -0.0382312 0.029659
-0.0186148 -0.0382312 0.0296587
-0.0186148 -0.0382312 0.0296586
-0.0186148 -0.0382312 0.0296587
-0.0186148 -0.0382312 0.0296586
-0.0186148 -0.0382312 0.0296586
-0.0186148 -0.0382312 0.0296591
-0.0186148 -0.0382312 0.029659
-0.0186148 -0.0382312 0.0296591
-0.0186148 -0.0382312 0.0296592
-0.0186148 -0.0382312 0.0296593
-0.0186148 -0.0382312 0.0296591
-0.0186148 -0.0382312 0.029659
-0.0186148 -0.0382312 0.029659
-0.0186148 -0.0382312 0.0296589
-0.0186148 -0.0382312 0.0296588
-0.0186148 -0.0382312 0.0296584
-0.0186148 -0.0382312 0.0296584
-0.0186148 -0.0382312 0.0296583
-0.0186149 -0.0382312 0.0296586
-0.0186149 -0.0382312 0.0296586
-0.0186149 -0.0382312 0.0296589
-0.0186149 -0.0382312 0.0296592
-0.0186149 -0.0382312 0.0296592
-0.0186149 -0.0382312 0.0296591
-0.0186149 -0.0382312 0.0296591
-0.0186149 -0.0382312 0.0296588
-0.0186149 -0.0382312 0.0296588
-0.0186149 -0.0382312 0.0296588
-0.0186149 -0.0382312 0.0296586
-0.0186149 -0.0382312 0.0296585
-0.0186149 -0.0382312 0.0296586
-0.0186149 -0.0382312 0.0296578
-0.0186149 -0.0382312 0.0296578
-0.0186149 -0.0382312 0.0296572
-0.0186149 -0.0382312 0.0296578
-0.0186149 -0.0382312 0.029658
-0.0186149 -0.0382312 0.0296578
-0.0186149 -0.0382312 0.0296578
-0.0186148 -0.0382312 0.0296578
-0.0186148 -0.0382312 0.0296579
-0.0186148 -0.0382312 0.0296578
-0.0186148 -0.0382312 0.0296578
-0.0186148 -0.0382312 0.0296579
-0.0186148 -0.0382313 0.0296578
-0.0186148 -0.0382313 0.0296579
-0.0186148 -0.0382313 0.0296577
-0.0186148 -0.0382313 0.0296577
-0.0186148 -0.0382313 0.029658
-0.0186148 -0.0382311 0.0296579
-0.0186148 -0.0382311 0.029658
-0.0186148 -0.0382311 0.0296579
-0.0186148 -0.0382311 0.029658
-0.0186148 -0.0382311 0.0296581
-0.0186146 -0.0382313 0.0296581
-0.0186146 -0.0382313 0.0296581
-0.0186146 -0.0382313 0.0296575
-0.0186146 -0.0382313 0.0296575
-0.0186146 -0.0382313 0.0296576
-0.0186146 -0.0382312 0.0296578
-0.0186146 -0.0382312 0.0296577
-0.0186146 -0.0382312 0.0296577
-0.0186146 -0.0382312 0.0296578
-0.0186146 -0.0382312 0.0296579
-0.0186147 -0.0382313 0.029658
-0.0186147 -0.0382313 0.029658
-0.0186147 -0.0382313 0.029658
-0.0186147 -0.0382313 0.0296582
-0.0186147 -0.0382313 0.0296579
-0.0186147 -0.0382312 0.0296577
-0.0186147 -0.0382312 0.0296578
-0.0186147 -0.0382312 0.029658
-0.0186147 -0.0382312 0.0296579
-0.0186147 -0.0382312 0.0296578
-0.0186148 -0.038231 0.029658
-0.0186148 -0.038231 0.029658
-0.0186148 -0.038231 0.029658
-0.0186148 -0.038231 0.029658
-0.0186148 -0.038231 0.0296576
-0.0186148 -0.0382312 0.0296577
-0.0186148 -0.0382312 0.0296578
-0.0186148 -0.0382312 0.0296576
-0.0186148 -0.0382312 0.0296576
-0.0186148 -0.0382312 0.0296572
-0.0186147 -0.0382313 0.0296573
-0.0186147 -0.0382313 0.0296574
-0.0186147 -0.0382313 0.0296574
-0.0186147 -0.0382313 0.0296576
-0.0186147 -0.0382313 0.0296573
-0.0186148 -0.0382312 0.0296581
-0.0186148 -0.0382312 0.0296566
-0.0186148 -0.0382312 0.0296566
-0.0186148 -0.0382312 0.0296568
-0.0186148 -0.0382312 0.029657
-0.0186146 -0.0382312 0.0296577
-0.0186146 -0.0382312 0.0296572
-0.0186146 -0.0382312 0.0296575
-0.0186146 -0.0382312 0.0296576
-0.0186146 -0.0382312 0.0296581
-0.0186148 -0.0382313 0.0296576
-0.0186148 -0.0382313 0.0296573
-0.0186148 -0.0382313 0.0296571
-0.0186148 -0.0382313 0.0296574
-0.0186148 -0.0382313 0.0296581
-0.0186149 -0.0382314 0.0296578
-0.0186149 -0.0382314 0.0296583
-0.0186149 -0.0382314 0.0296573
-0.0186149 -0.0382314 0.0296577
-0.0186149 -0.0382314 0.0296577
-0.0186149 -0.0382312 0.0296586
-0.0186149 -0.0382312 0.0296588
-0.0186149 -0.0382312 0.0296592
-0.0186149 -0.0382312 0.0296593
-0.0186149 -0.0382312 0.0296596
-0.0186148 -0.0382313 0.0296595
-0.0186148 -0.0382313 0.0296596
-0.0186148 -0.0382313 0.029659
-0.0186148 -0.0382313 0.0296595
-0.0186148 -0.0382313 0.0296622
-0.0186148 -0.0382313 0.0296602
-0.0186148 -0.0382313 0.0296607
-0.0186148 -0.0382313 0.0296608
-0.0186148 -0.0382313 0.0296604
-0.0186148 -0.0382313 0.0296599
-0.0186149 -0.0382314 0.0296604
-0.0186149 -0.0382314 0.02966
-0.0186149 -0.0382314 0.0296601
-0.0186149 -0.0382314 0.0296595
-0.0186149 -0.0382314 0.0296594
-0.0186152 -0.0382313 0.0296591
-0.0186152 -0.0382313 0.029659
-0.0186152 -0.0382313 0.0296583
-0.0186152 -0.0382313 0.0296586
-0.0186152 -0.0382313 0.0296589
-0.018615 -0.0382315 0.0296586
-0.018615 -0.0382315 0.0296583
-0.018615 -0.0382315 0.0296595
-0.018615 -0.0382315 0.0296596
-0.018615 -0.0382315 0.0296604
-0.0186149 -0.0382315 0.0296596
-0.0186149 -0.0382315 0.0296599
-0.0186149 -0.0382315 0.0296593
-0.0186149 -0.0382315 0.0296583
-0.0186149 -0.0382315 0.0296583
-0.0186151 -0.0382316 0.0296583
-0.0186151 -0.0382316 0.0296581
-0.0186151 -0.0382316 0.0296583
-0.0186151 -0.0382316 0.0296594
-0.0186151 -0.0382316 0.0296603
-0.0186151 -0.0382315 0.0296603
-0.0186151 -0.0382315 0.0296603
-0.0186151 -0.0382315 0.0296609
-0.0186151 -0.0382315 0.029661
-0.0186151 -0.0382315 0.0296607
-0.018615 -0.0382315 0.0296603
-0.018615 -0.0382315 0.0296604
-0.018615 -0.0382315 0.0296607
-0.018615 -0.0382315 0.0296606
-0.018615 -0.0382315 0.0296605
-0.0186151 -0.0382317 0.0296607
-0.0186151 -0.0382317 0.0296606
-0.0186151 -0.0382317 0.0296608
-0.0186151 -0.0382317 0.0296603
-0.0186151 -0.0382317 0.0296607
-0.018615 -0.0382317 0.0296609
-0.018615 -0.0382317 0.0296608
-0.018615 -0.0382317 0.0296607
-0.018615 -0.0382317 0.0296605
-0.018615 -0.0382317 0.029661
-0.0186151 -0.0382317 0.0296607
-0.0186151 -0.0382317 0.0296608
-0.0186151 -0.0382317 0.0296611
-0.0186151 -0.0382317 0.029661
-0.0186151 -0.0382317 0.0296607
-0.0186152 -0.0382316 0.0296607
-0.0186152 -0.0382316 0.0296607
-0.0186152 -0.0382316 0.0296606
-0.0186152 -0.0382316 0.0296609
-0.0186152 -0.0382316 0.0296608
-0.0186153 -0.0382316 0.0296614
-0.0186153 -0.0382316 0.0296616
-0.0186153 -0.0382316 0.0296613
-0.0186153 -0.0382316 0.0296615
-0.0186153 -0.0382316 0.0296616
-0.0186151 -0.0382319 0.0296617
-0.0186151 -0.0382319 0.0296617
-0.0186151 -0.0382319 0.0296617
-0.0186151 -0.0382319 0.0296617
-0.0186151 -0.0382319 0.0296615
-0.0186139 -0.0382318 0.02966
-0.0186139 -0.0382318 0.0296609
-0.0186139 -0.0382318 0.0296599
-0.0186139 -0.0382318 0.0296608
-0.0186139 -0.0382318 0.0296609
-0.018614 -0.0382313 0.0296606
-0.018614 -0.0382313 0.02966
-0.018614 -0.0382313 0.0296609
-0.018614 -0.0382313 0.0296606
-0.018614 -0.0382313 0.0296612
-0.018614 -0.0382318 0.0296607
-0.018614 -0.0382318 0.0296604
-0.018614 -0.0382318 0.0296601
-0.018614 -0.0382318 0.0296602
-0.018614 -0.0382318 0.0296594
-0.018614 -0.0382316 0.0296596
-0.018614 -0.0382316 0.0296598
-0.018614 -0.0382316 0.0296597
-0.018614 -0.0382316 0.0296597
-0.018614 -0.0382316 0.0296599
-0.0186139 -0.0382316 0.0296596
-0.0186139 -0.0382316 0.0296594
-0.0186139 -0.0382316 0.0296596
-0.0186139 -0.0382316 0.0296601
-0.0186139 -0.0382316 0.0296603
-0.018614 -0.0382316 0.0296602
-0.018614 -0.0382316 0.0296599
-0.018614 -0.0382316 0.0296599
-0.018614 -0.0382316 0.0296598
-0.018614 -0.0382316 0.0296595
-0.018614 -0.0382316 0.0296595
-0.018614 -0.0382316 0.0296595
-0.018614 -0.0382316 0.0296595
-0.018614 -0.0382316 0.0296602
-0.018614 -0.0382316 0.0296602
-0.0186138 -0.0382315 0.0296595
-0.0186138 -0.0382315 0.0296593
-0.0186138 -0.0382315 0.0296609
-0.0186138 -0.0382315 0.0296605
-0.0186138 -0.0382315 0.0296601
-0.0186139 -0.0382315 0.0296604
-0.0186139 -0.0382315 0.0296604
-0.0186139 -0.0382315 0.02966
-0.0186139 -0.0382315 0.02966
-0.0186139 -0.0382315 0.0296599
-0.0186139 -0.0382315 0.0296599
-0.0186139 -0.0382315 0.02966
-0.0186139 -0.0382315 0.0296601
-0.0186139 -0.0382315 0.0296604
-0.0186139 -0.0382315 0.0296604
-0.0186138 -0.0382314 0.0296604
-0.0186138 -0.0382314 0.0296604
-0.0186138 -0.0382314 0.0296604
-0.0186138 -0.0382314 0.0296604
-0.0186138 -0.0382314 0.0296605
-0.0186138 -0.0382315 0.0296607
-0.0186138 -0.0382315 0.0296604
-0.0186138 -0.0382315 0.0296605
-0.0186138 -0.0382315 0.0296606
-0.0186138 -0.0382315 0.0296604
-0.0186137 -0.0382315 0.0296605
-0.0186137 -0.0382315 0.0296605
-0.0186137 -0.0382315 0.0296602
-0.0186137 -0.0382315 0.0296602
-0.0186137 -0.0382315 0.0296604
-0.0186137 -0.0382315 0.0296607
-0.0186137 -0.0382315 0.0296605
-0.0186137 -0.0382315 0.0296613
-0.0186137 -0.0382315 0.0296614
-0.0186137 -0.0382315 0.0296609
-0.0186136 -0.0382314 0.0296609
-0.0186136 -0.0382314 0.0296611
-0.0186136 -0.0382314 0.0296605
-0.0186136 -0.0382314 0.0296605
-0.0186136 -0.0382314 0.0296608
-0.0186137 -0.0382313 0.0296607
-0.0186137 -0.0382313 0.0296609
-0.0186137 -0.0382313 0.0296608
-0.0186137 -0.0382313 0.0296609
-0.0186137 -0.0382313 0.0296609
-0.0186137 -0.0382313 0.0296606
-0.0186137 -0.0382313 0.0296607
-0.0186137 -0.0382313 0.0296615
-0.0186137 -0.0382313 0.0296611
-0.0186137 -0.0382313 0.0296606
-0.0186137 -0.0382312 0.0296618
-0.0186137 -0.0382312 0.0296605
-0.0186137 -0.0382312 0.0296602
-0.0186137 -0.0382312 0.0296602
-0.0186137 -0.0382312 0.0296606
-0.0186135 -0.0382314 0.0296607
-0.0186135 -0.0382314 0.0296605
-0.0186135 -0.0382314 0.0296606
-0.0186135 -0.0382314 0.0296607
-0.0186135 -0.0382314 0.0296608
-0.0186135 -0.0382312 0.0296607
-0.0186135 -0.0382312 0.0296603
-0.0186135 -0.0382312 0.0296602
-0.0186135 -0.0382312 0.0296605
-0.0186135 -0.0382312 0.0296599
-0.0186135 -0.0382311 0.0296599
-0.0186135 -0.0382311 0.02966
-0.0186135 -0.0382311 0.02966
-0.0186135 -0.0382311 0.0296599
-0.0186135 -0.0382311 0.0296595
-0.0186135 -0.0382312 0.0296595
-0.0186135 -0.0382312 0.0296594
-0.0186135 -0.0382312 0.0296593
-0.0186135 -0.0382312 0.0296587
-0.0186135 -0.0382312 0.029659
-0.0186136 -0.0382312 0.0296592
-0.0186136 -0.0382312 0.0296592
-0.0186136 -0.0382312 0.029659
-0.0186136 -0.0382312 0.029659
-0.0186136 -0.0382312 0.0296597
-0.0186134 -0.0382312 0.0296597
-0.0186134 -0.0382312 0.0296604
-0.0186134 -0.0382312 0.0296604
-0.0186134 -0.0382312 0.0296606
-0.0186134 -0.0382312 0.0296604
-0.0186133 -0.0382312 0.029662
-0.0186133 -0.0382312 0.0296613
-0.0186133 -0.0382312 0.029662
-0.0186133 -0.0382312 0.0296616
-0.0186133 -0.0382312 0.0296618
-0.0186135 -0.0382311 0.0296625
-0.0186135 -0.0382311 0.0296621
-0.0186135 -0.0382311 0.0296611
-0.0186135 -0.0382311 0.0296619
-0.0186135 -0.0382311 0.0296619
-0.0186135 -0.0382311 0.0296615
-0.0186135 -0.0382311 0.0296612
-0.0186135 -0.0382311 0.0296625
-0.0186135 -0.0382311 0.0296622
-0.0186135 -0.0382311 0.0296626
-0.0186134 -0.0382311 0.0296617
-0.0186134 -0.0382311 0.0296622
-0.0186134 -0.0382311 0.0296613
-0.0186134 -0.0382311 0.0296617
-0.0186134 -0.0382311 0.0296617
-0.0186133 -0.0382311 0.0296621
-0.0186133 -0.0382311 0.0296624
-0.0186133 -0.0382311 0.0296627
-0.0186133 -0.0382311 0.0296634
-0.0186133 -0.0382311 0.0296634
-0.0186133 -0.038231 0.0296633
-0.0186133 -0.038231 0.0296634
-0.0186133 -0.038231 0.0296627
-0.0186133 -0.038231 0.029664
-0.0186133 -0.038231 0.0296629
-0.0186133 -0.038231 0.0296619
-0.0186133 -0.038231 0.0296634
-0.0186133 -0.038231 0.0296645
-0.0186133 -0.038231 0.0296652
-0.0186133 -0.038231 0.0296638
-0.0186133 -0.038231 0.0296637
-0.0186133 -0.038231 0.0296635
-0.0186133 -0.038231 0.0296633
-0.0186133 -0.038231 0.0296641
-0.0186133 -0.038231 0.0296643
-0.0186133 -0.0382312 0.0296641
-0.0186133 -0.0382312 0.0296639
-0.0186133 -0.0382312 0.029664
-0.0186133 -0.0382312 0.0296638
-0.0186133 -0.0382312 0.0296634
-0.0186132 -0.038231 0.029663
-0.0186132 -0.038231 0.0296629
-0.0186132 -0.038231 0.0296631
-0.0186132 -0.038231 0.0296631
-0.0186132 -0.038231 0.0296633
-0.0186131 -0.0382309 0.0296634
-0.0186131 -0.0382309 0.029663
-0.0186131 -0.0382309 0.0296629
-0.0186131 -0.0382309 0.029663
-0.0186131 -0.0382309 0.0296628
-0.0186131 -0.0382309 0.0296626
-0.0186131 -0.0382309 0.0296632
-0.0186131 -0.0382309 0.0296635
-0.0186131 -0.0382309 0.0296632
-0.0186131 -0.0382309 0.0296629
-0.0186132 -0.0382308 0.029663
-0.0186132 -0.0382308 0.029663
-0.0186132 -0.0382308 0.0296626
-0.0186132 -0.0382308 0.0296628
-0.0186132 -0.0382308 0.0296628
-0.018613 -0.0382309 0.0296628
-0.018613 -0.0382309 0.0296629
-0.018613 -0.0382309 0.0296628
-0.018613 -0.0382309 0.0296616
-0.018613 -0.0382309 0.0296626
-0.0186131 -0.0382309 0.029663
-0.0186131 -0.0382309 0.0296626
-0.0186131 -0.0382309 0.0296631
-0.0186131 -0.0382309 0.0296628
-0.0186131 -0.0382309 0.0296627
-0.0186131 -0.0382309 0.0296621
-0.0186131 -0.0382309 0.0296626
-0.0186131 -0.0382309 0.0296628
-0.0186131 -0.0382309 0.0296624
-0.0186131 -0.0382309 0.0296637
-0.0186131 -0.0382308 0.0296641
-0.0186131 -0.0382308 0.0296628
-0.0186131 -0.0382308 0.0296635
-0.0186131 -0.0382308 0.0296634
-0.0186131 -0.0382308 0.0296639
-0.0186137 -0.0382315 0.0296634
-0.0186137 -0.0382315 0.0296638
-0.0186137 -0.0382315 0.0296642
-0.0186137 -0.0382315 0.0296645
-0.0186137 -0.0382315 0.0296648
-0.0186139 -0.0382319 0.0296649
-0.0186139 -0.0382319 0.0296649
-0.0186139 -0.0382319 0.0296665
-0.0186139 -0.0382319 0.0296653
-0.0186139 -0.0382319 0.0296658
-0.0186143 -0.0382314 0.0296656
-0.0186143 -0.0382314 0.0296671
-0.0186143 -0.0382314 0.0296667
-0.0186143 -0.0382314 0.0296665
-0.0186143 -0.0382314 0.0296659
